{"learner":{"attributes":{"scikit_learn":"{\"_estimator_type\": \"regressor\"}"},"feature_names":[],"feature_types":[],"gradient_booster":{"model":{"gbtree_model_param":{"num_parallel_tree":"1","num_trees":"100"},"iteration_indptr":[0,1,2,3,4,5,6,7,8,9,10,11,12,13,14,15,16,17,18,19,20,21,22,23,24,25,26,27,28,29,30,31,32,33,34,35,36,37,38,39,40,41,42,43,44,45,46,47,48,49,50,51,52,53,54,55,56,57,58,59,60,61,62,63,64,65,66,67,68,69,70,71,72,73,74,75,76,77,78,79,80,81,82,83,84,85,86,87,88,89,90,91,92,93,94,95,96,97,98,99,100],"tree_info":[0,0,0,0,0,0,0,0,0,0,0,0,0,0,0,0,0,0,0,0,0,0,0,0,0,0,0,0,0,0,0,0,0,0,0,0,0,0,0,0,0,0,0,0,0,0,0,0,0,0,0,0,0,0,0,0,0,0,0,0,0,0,0,0,0,0,0,0,0,0,0,0,0,0,0,0,0,0,0,0,0,0,0,0,0,0,0,0,0,0,0,0,0,0,0,0,0,0,0,0],"trees":[{"base_weights":[-4.8296323E-7,3.683321E1,-2.2917368E0,4.1694782E1,-5.9434595E0,4.8116918E0,-7.4436545E0,6.1209793E1,3.1348269E1,-6.820739E0,-3.5730344E-1,6.4944406E0,3.0073795E-1,5.361311E0,-1.0226417E1,3.4313976E1,7.2538574E1,1.4445969E1,3.921121E1,-8.040432E0,-5.923044E0,-5.4290537E-2,6.921349E-1,9.953396E0,1.7191788E0,-3.041537E0,1.0228374E1,1.2462989E1,-6.2100887E0,-7.7414064E0,-1.372626E1,4.1374077E1,2.2725018E1,8.372462E1,6.4870705E1,2.2000866E1,1.3082846E1,4.7363216E1,3.328086E1,-1.5683365E-1,-8.190563E0,-7.558115E0,-4.4949217E0,-1.7024837E-1,5.1763253E0,1.1050423E1,5.6454053E0,1.1878735E0,6.492805E0,8.822658E-1,-4.806691E0,1.2302683E1,6.849594E0,2.0279173E1,7.664177E0,-4.6621566E0,-7.0761547E0,-9.969761E0,-1.9477248E0,-1.4729692E1,-1.1756599E1,4.8385483E1,3.389377E1,4.8221487E-1,1.7522648E1,6.429049E-1,8.476482E-1,6.82465E1,5.781914E1,3.530391E1,9.069387E0,1.6487684E1,1.0255591E1,5.2367302E1,4.2209267E1,3.719738E1,3.1008469E1,-4.1306946E-2,3.869305E-2,-7.8787894E0,-1.0000344E-1,-7.9439744E-2,-4.743619E0,-5.2427564E0,-1.1897184E0,2.2559597E0,-1.7155967E0,1.0603167E1,5.605353E-1,6.03304E0,1.195761E1,7.6941586E0,4.851615E0,4.9196258E0,5.1103616E-1,1.0361102E1,3.4058547E0,-6.8375856E-1,2.2032673E0,-5.3936315E0,-1.0673681E0,1.3483094E1,1.5972672E0,8.113672E0,1.5531765E0,2.4632936E1,1.812053E1,4.435877E0,1.0220768E1,-5.550296E0,-2.573449E0,-6.702607E0,-8.597363E0,-1.1033269E1,-7.7207575E0,-2.203148E0,2.0703909E1,-1.6962929E-1,-1.4475146E1,-9.372565E0,-1.2177795E1,6.0457385E-1,4.5645064E-1,3.2042807E-1,4.3278793E-1,1.3975878E-1,1.8832615E-1,7.2418606E-1,6.177649E-1,8.20278E-1,5.488536E-1,6.086082E-1,2.9436734E-1,1.4223878E-1,1.44670205E-2,2.0586504E-1,1.451062E-1,9.124234E-2,1.7342134E-1,7.831314E-1,5.03134E-1,7.168239E-1,4.030695E-1,3.6076286E-1,4.692515E-1,3.105977E-1,6.102639E-2,-9.238172E-2,-7.341075E-2,-8.454705E-2,1.4159629E-2,-2.3591518E-2,-5.9343237E-2,4.7479622E-2,-3.461432E-2,4.2724602E-2,-2.0590369E-2,-3.7517443E-2,3.953562E-2,4.8026383E-2,1.2869306E-1,-5.848021E-2,2.603298E-2,1.1547437E-1,4.914679E-2,1.2997589E-1,9.355695E-2,8.445727E-2,4.6789367E-2,4.88872E-2,-1.0830035E-1,-2.7971663E-2,5.5998176E-2,2.4596617E-2,1.9169585E-3,1.4680263E-1,8.9170635E-2,5.1903326E-2,-2.7695345E-3,1.6383693E-1,-9.135768E-3,2.8578691E-2,-4.9585775E-2,-7.82775E-2,-4.0367097E-2,-1.3730814E-2,2.7153462E-1,1.5239426E-1,1.0350878E-1,1.2399092E-2,3.010198E-1,8.474879E-2,-5.3734943E-2,5.547307E-3,2.2347963E-1,3.9943758E-1,2.4177848E-1,8.520317E-2,1.8552223E-1,6.310931E-2,2.9621629E-2,1.1373954E-1,5.5690248E-2,-6.7611076E-2,-4.628732E-2,-3.4586865E-2,-8.169035E-3,-6.555429E-2,-7.99234E-2,-8.343294E-2,-1.0971748E-1,-1.1619068E-1,-1.0099084E-1,-4.617043E-2,-8.2016006E-2,-3.989778E-2,2.2935548E-3,1.054196E-1,3.1116676E-1,-1.3159268E-1,-1.4628059E-1,-9.602315E-2,-7.293464E-2,-1.24072485E-1,-9.981508E-2],"categories":[],"categories_nodes":[],"categories_segments":[],"categories_sizes":[],"default_left":[0,0,0,0,0,0,0,0,0,0,0,0,0,0,0,0,0,0,0,0,0,0,0,0,0,0,0,0,0,0,0,0,0,0,0,0,0,0,0,0,0,0,0,0,0,0,0,0,0,0,0,0,0,0,0,0,0,0,0,0,0,0,0,0,0,0,0,0,0,0,0,0,0,0,0,0,0,0,0,0,0,0,0,0,0,0,0,0,0,0,0,0,0,0,0,0,0,0,0,0,0,0,0,0,0,0,0,0,0,0,0,0,0,0,0,0,0,0,0,0,0,0,0,0,0,0,0,0,0,0,0,0,0,0,0,0,0,0,0,0,0,0,0,0,0,0,0,0,0,0,0,0,0,0,0,0,0,0,0,0,0,0,0,0,0,0,0,0,0,0,0,0,0,0,0,0,0,0,0,0,0,0,0,0,0,0,0,0,0,0,0,0,0,0,0,0,0,0,0,0,0,0,0,0,0,0,0,0,0,0,0,0,0,0,0,0,0,0,0,0,0,0,0,0,0],"id":0,"left_children":[1,3,5,7,9,11,13,15,17,19,21,23,25,27,29,31,33,35,37,39,41,-1,43,45,47,49,51,53,55,57,59,61,63,65,67,69,71,73,75,77,79,81,83,85,87,89,91,93,95,97,99,101,103,105,107,109,111,113,115,117,119,121,123,-1,125,-1,-1,127,129,131,133,135,137,139,141,143,145,-1,-1,147,-1,-1,149,151,153,155,157,159,161,163,165,167,169,171,173,175,177,179,181,183,185,187,189,191,193,195,197,199,201,203,205,207,209,211,213,215,217,-1,219,221,223,-1,-1,-1,-1,-1,-1,-1,-1,-1,-1,-1,-1,-1,-1,-1,-1,-1,-1,-1,-1,-1,-1,-1,-1,-1,-1,-1,-1,-1,-1,-1,-1,-1,-1,-1,-1,-1,-1,-1,-1,-1,-1,-1,-1,-1,-1,-1,-1,-1,-1,-1,-1,-1,-1,-1,-1,-1,-1,-1,-1,-1,-1,-1,-1,-1,-1,-1,-1,-1,-1,-1,-1,-1,-1,-1,-1,-1,-1,-1,-1,-1,-1,-1,-1,-1,-1,-1,-1,-1,-1,-1,-1,-1,-1,-1,-1,-1,-1,-1,-1,-1,-1,-1,-1],"loss_changes":[8.3050445E6,1.198731E6,3.3897295E6,1.042978E6,2.8840293E3,2.955687E5,1.913093E6,5.43527E5,4.49173E5,5.096875E2,4.3487927E2,4.6840025E5,3.510849E5,7.877377E5,3.83464E5,4.26695E4,1.02643E5,1.0793078E4,1.100505E5,2.5081738E2,6.595459E2,0E0,2.6384344E2,7.7661125E4,3.02092E4,5.4831375E4,1.8593719E4,2.2264444E5,4.854875E3,3.32978E5,3.601725E4,1.56676875E4,2.6214008E4,4.84E3,1.395525E4,2.772039E4,8.629391E3,2.28065E4,1.07725E4,9.59795E1,3.913672E1,1.1109912E2,3.917141E2,2.2133183E2,2.695973E2,5.9587125E4,5.394453E3,2.7079E4,1.4210617E4,5.084353E3,1.1977633E4,2.0829188E4,6.7896094E3,2.078425E4,3.0343828E4,2.417705E3,1.2697812E3,4.446975E4,4.1506285E4,6.648E3,6.0965E3,2.7982188E3,1.44475E3,0E0,5.3129297E2,0E0,0E0,9.104E3,1.32536875E4,1.0204203E4,3.2798716E3,3.0480703E3,3.866504E3,2.20655E4,2.419125E4,3.6181875E3,9.01625E2,0E0,0E0,6.594824E1,0E0,0E0,4.462876E2,2.4724121E2,4.3458475E2,2.0892462E2,4.3038956E2,3.9174194E0,1.0686226E2,1.233293E4,2.9911625E4,2.0702695E3,1.4552617E3,8.655352E3,5.647916E3,3.1684844E3,4.3717456E3,4.427681E3,6.263484E3,1.55548125E4,6.4388774E3,8.0170625E3,1.6434293E3,4.0402969E3,4.0778086E3,4.2322188E3,6.1164688E3,4.482711E3,1.0955E4,9.941621E2,6.082739E2,3.0447656E2,1.8414844E2,6.8025E3,8.8926875E3,3.0800906E4,8.137086E3,0E0,1.99925E3,3.75625E2,2.523375E3,0E0,0E0,0E0,0E0,0E0,0E0,0E0,0E0,0E0,0E0,0E0,0E0,0E0,0E0,0E0,0E0,0E0,0E0,0E0,0E0,0E0,0E0,0E0,0E0,0E0,0E0,0E0,0E0,0E0,0E0,0E0,0E0,0E0,0E0,0E0,0E0,0E0,0E0,0E0,0E0,0E0,0E0,0E0,0E0,0E0,0E0,0E0,0E0,0E0,0E0,0E0,0E0,0E0,0E0,0E0,0E0,0E0,0E0,0E0,0E0,0E0,0E0,0E0,0E0,0E0,0E0,0E0,0E0,0E0,0E0,0E0,0E0,0E0,0E0,0E0,0E0,0E0,0E0,0E0,0E0,0E0,0E0,0E0,0E0,0E0,0E0,0E0,0E0,0E0,0E0,0E0,0E0,0E0,0E0,0E0,0E0,0E0,0E0,0E0,0E0,0E0,0E0,0E0,0E0],"parents":[2147483647,0,0,1,1,2,2,3,3,4,4,5,5,6,6,7,7,8,8,9,9,10,10,11,11,12,12,13,13,14,14,15,15,16,16,17,17,18,18,19,19,20,20,22,22,23,23,24,24,25,25,26,26,27,27,28,28,29,29,30,30,31,31,32,32,33,33,34,34,35,35,36,36,37,37,38,38,39,39,40,40,41,41,42,42,43,43,44,44,45,45,46,46,47,47,48,48,49,49,50,50,51,51,52,52,53,53,54,54,55,55,56,56,57,57,58,58,59,59,60,60,61,61,62,62,64,64,67,67,68,68,69,69,70,70,71,71,72,72,73,73,74,74,75,75,76,76,79,79,82,82,83,83,84,84,85,85,86,86,87,87,88,88,89,89,90,90,91,91,92,92,93,93,94,94,95,95,96,96,97,97,98,98,99,99,100,100,101,101,102,102,103,103,104,104,105,105,106,106,107,107,108,108,109,109,110,110,111,111,112,112,113,113,114,114,115,115,116,116,118,118,119,119,120,120],"right_children":[2,4,6,8,10,12,14,16,18,20,22,24,26,28,30,32,34,36,38,40,42,-1,44,46,48,50,52,54,56,58,60,62,64,66,68,70,72,74,76,78,80,82,84,86,88,90,92,94,96,98,100,102,104,106,108,110,112,114,116,118,120,122,124,-1,126,-1,-1,128,130,132,134,136,138,140,142,144,146,-1,-1,148,-1,-1,150,152,154,156,158,160,162,164,166,168,170,172,174,176,178,180,182,184,186,188,190,192,194,196,198,200,202,204,206,208,210,212,214,216,218,-1,220,222,224,-1,-1,-1,-1,-1,-1,-1,-1,-1,-1,-1,-1,-1,-1,-1,-1,-1,-1,-1,-1,-1,-1,-1,-1,-1,-1,-1,-1,-1,-1,-1,-1,-1,-1,-1,-1,-1,-1,-1,-1,-1,-1,-1,-1,-1,-1,-1,-1,-1,-1,-1,-1,-1,-1,-1,-1,-1,-1,-1,-1,-1,-1,-1,-1,-1,-1,-1,-1,-1,-1,-1,-1,-1,-1,-1,-1,-1,-1,-1,-1,-1,-1,-1,-1,-1,-1,-1,-1,-1,-1,-1,-1,-1,-1,-1,-1,-1,-1,-1,-1,-1,-1,-1,-1],"split_conditions":[1.5626647E-1,2E0,1E0,9.746154E-2,8.557024E1,5.412377E-1,2.8201544E-1,1E0,1E0,4.8720776E1,6.1645232E-2,1.5035012E1,8.916668E-1,2E0,2E0,8.2479134E-2,7.316818E-2,4.192527E1,1.2296668E-1,3.0720758E1,1.1714198E-1,-5.4290537E-2,1.2787466E2,5.0431913E-1,4.7324757E1,5.799004E-1,5.594314E0,2.0949645E-1,2.1679617E-1,1.6433886E1,1.5194203E1,1.05307335E2,5.5262585E1,7.835122E1,9.057886E-2,1.4060892E-1,1.2296668E-1,1.1099977E-1,1.351353E-1,1.4615507E-1,4.7324757E1,7.835122E1,6.5639885E1,7.316818E-2,8.2479134E-2,4.04874E-1,5.138674E-1,1.5891245E1,1.9152296E-1,1.0503101E1,7.859666E-1,2.028063E0,9.399356E0,1.749682E-1,2.6001743E1,4.395108E1,2.7060425E-1,1.3171712E1,4.5107613E1,7.182829E0,3.0380818E-1,6.5639885E1,7.316818E-2,4.8221487E-1,6.5639885E1,6.429049E-1,8.476482E-1,7.835122E1,5.334669E1,1.1714198E-1,3.818688E1,5.334669E1,9.382806E1,4.5107613E1,4.0836666E1,6.910041E1,1.2787466E2,-4.1306946E-2,3.869305E-2,3.818688E1,-1.0000344E-1,-7.9439744E-2,9.057886E-2,5.013853E1,6.910041E1,1.05307335E2,1.351353E-1,7.316818E-2,9.057886E-2,1.2500372E1,1.3280215E1,1.2446067E1,1.4963011E1,3.421511E-1,2.2304481E-1,1.661321E-1,2.4240991E-1,7.696461E0,1.4887401E1,8.869837E0,3.2438683E1,4.768677E0,5.3275976E0,1.711128E0,3.1282543E1,2.820123E1,2.5597591E1,2.5522658E-1,2.6160464E-1,1.9152296E-1,5.5262585E1,4.0836666E1,3.3698223E1,1.100456E1,3.6179712E-1,2.019789E1,4.389276E-1,-1.6962929E-1,4.0122902E-1,3.0720758E1,4.5773217E-1,6.0457385E-1,4.5645064E-1,3.2042807E-1,4.3278793E-1,1.3975878E-1,1.8832615E-1,7.2418606E-1,6.177649E-1,8.20278E-1,5.488536E-1,6.086082E-1,2.9436734E-1,1.4223878E-1,1.44670205E-2,2.0586504E-1,1.451062E-1,9.124234E-2,1.7342134E-1,7.831314E-1,5.03134E-1,7.168239E-1,4.030695E-1,3.6076286E-1,4.692515E-1,3.105977E-1,6.102639E-2,-9.238172E-2,-7.341075E-2,-8.454705E-2,1.4159629E-2,-2.3591518E-2,-5.9343237E-2,4.7479622E-2,-3.461432E-2,4.2724602E-2,-2.0590369E-2,-3.7517443E-2,3.953562E-2,4.8026383E-2,1.2869306E-1,-5.848021E-2,2.603298E-2,1.1547437E-1,4.914679E-2,1.2997589E-1,9.355695E-2,8.445727E-2,4.6789367E-2,4.88872E-2,-1.0830035E-1,-2.7971663E-2,5.5998176E-2,2.4596617E-2,1.9169585E-3,1.4680263E-1,8.9170635E-2,5.1903326E-2,-2.7695345E-3,1.6383693E-1,-9.135768E-3,2.8578691E-2,-4.9585775E-2,-7.82775E-2,-4.0367097E-2,-1.3730814E-2,2.7153462E-1,1.5239426E-1,1.0350878E-1,1.2399092E-2,3.010198E-1,8.474879E-2,-5.3734943E-2,5.547307E-3,2.2347963E-1,3.9943758E-1,2.4177848E-1,8.520317E-2,1.8552223E-1,6.310931E-2,2.9621629E-2,1.1373954E-1,5.5690248E-2,-6.7611076E-2,-4.628732E-2,-3.4586865E-2,-8.169035E-3,-6.555429E-2,-7.99234E-2,-8.343294E-2,-1.0971748E-1,-1.1619068E-1,-1.0099084E-1,-4.617043E-2,-8.2016006E-2,-3.989778E-2,2.2935548E-3,1.054196E-1,3.1116676E-1,-1.3159268E-1,-1.4628059E-1,-9.602315E-2,-7.293464E-2,-1.24072485E-1,-9.981508E-2],"split_indices":[8,9,9,8,5,8,8,9,9,5,8,5,8,9,9,8,8,5,8,5,8,0,5,8,5,8,5,8,8,5,5,5,5,5,8,8,8,8,8,8,5,5,5,8,8,8,8,5,8,5,8,8,5,8,5,5,8,5,5,5,8,5,8,0,5,0,0,5,5,8,5,5,5,5,5,5,5,0,0,5,0,0,8,5,5,5,8,8,8,5,5,5,5,8,8,8,8,5,5,5,5,5,5,8,5,5,5,8,8,8,5,5,5,5,8,5,8,0,8,5,8,0,0,0,0,0,0,0,0,0,0,0,0,0,0,0,0,0,0,0,0,0,0,0,0,0,0,0,0,0,0,0,0,0,0,0,0,0,0,0,0,0,0,0,0,0,0,0,0,0,0,0,0,0,0,0,0,0,0,0,0,0,0,0,0,0,0,0,0,0,0,0,0,0,0,0,0,0,0,0,0,0,0,0,0,0,0,0,0,0,0,0,0,0,0,0,0,0,0,0,0,0,0,0,0],"split_type":[0,0,0,0,0,0,0,0,0,0,0,0,0,0,0,0,0,0,0,0,0,0,0,0,0,0,0,0,0,0,0,0,0,0,0,0,0,0,0,0,0,0,0,0,0,0,0,0,0,0,0,0,0,0,0,0,0,0,0,0,0,0,0,0,0,0,0,0,0,0,0,0,0,0,0,0,0,0,0,0,0,0,0,0,0,0,0,0,0,0,0,0,0,0,0,0,0,0,0,0,0,0,0,0,0,0,0,0,0,0,0,0,0,0,0,0,0,0,0,0,0,0,0,0,0,0,0,0,0,0,0,0,0,0,0,0,0,0,0,0,0,0,0,0,0,0,0,0,0,0,0,0,0,0,0,0,0,0,0,0,0,0,0,0,0,0,0,0,0,0,0,0,0,0,0,0,0,0,0,0,0,0,0,0,0,0,0,0,0,0,0,0,0,0,0,0,0,0,0,0,0,0,0,0,0,0,0,0,0,0,0,0,0,0,0,0,0,0,0,0,0,0,0,0,0],"sum_hessian":[9.8385E4,5.762E3,9.2623E4,5.174E3,5.88E2,3.8937E4,5.3686E4,1.791E3,3.383E3,5.08E2,8E1,2.8358E4,1.0579E4,9.584E3,4.4102E4,5.32E2,1.259E3,1.075E3,2.308E3,2.12E2,2.96E2,1.3E1,6.7E1,1.6445E4,1.1913E4,7.915E3,2.664E3,5.939E3,3.645E3,2.5792E4,1.831E4,3.29E2,2.03E2,5.08E2,7.51E2,1.62E2,9.13E2,9.69E2,1.339E3,4E0,2.08E2,1.36E2,1.6E2,5.7E1,1E1,1.3106E4,3.339E3,1.0721E4,1.192E3,2.456E3,5.459E3,1.649E3,1.015E3,2.258E3,3.681E3,1.31E3,2.335E3,1.8627E4,7.165E3,1.2126E4,6.184E3,1.67E2,1.62E2,3.3E1,1.7E2,2.9E1,4.79E2,5.02E2,2.49E2,7.9E1,8.3E1,4.12E2,5.01E2,4.87E2,4.82E2,4.86E2,8.53E2,2E0,2E0,1.82E2,2.6E1,1.18E2,1.8E1,1.3E2,3E1,2.2E1,3.5E1,4E0,6E0,2.008E3,1.1098E4,9.3E2,2.409E3,1.645E3,9.076E3,5.28E2,6.64E2,1.124E3,1.332E3,4.718E3,7.41E2,1.485E3,1.64E2,8.19E2,1.96E2,7.45E2,1.513E3,1.628E3,2.053E3,9.18E2,3.92E2,1.879E3,4.56E2,1.2644E4,5.983E3,7.086E3,7.9E1,1.234E3,1.0892E4,9.32E2,5.252E3,2.7E1,1.4E2,1.39E2,2.3E1,4.9E1,1.21E2,2.99E2,2.03E2,2.4E1,2.25E2,1.3E1,6.6E1,4.9E1,3.4E1,1.31E2,2.81E2,4.34E2,6.7E1,3.3E1,4.54E2,2.7E1,4.55E2,4.4E2,4.6E1,8.51E2,2E0,4.7E1,1.35E2,1.1E1,7E0,2.6E1,1.04E2,8E0,2.2E1,1.5E1,7E0,2.6E1,9E0,2E0,2E0,1E0,5E0,3.37E2,1.671E3,7.926E3,3.172E3,7.43E2,1.87E2,2.404E3,5E0,1.33E2,1.512E3,1.277E3,7.799E3,1.3E2,3.98E2,4.47E2,2.17E2,1.4E1,1.11E3,1.221E3,1.11E2,1.687E3,3.031E3,7.34E2,7E0,9.49E2,5.36E2,1.63E2,1E0,7.98E2,2.1E1,1.88E2,8E0,1.9E1,7.26E2,6.6E1,1.447E3,7.15E2,9.13E2,1.644E3,4.09E2,3.94E2,5.24E2,2.6E2,1.32E2,1.692E3,1.87E2,4.16E2,4E1,7.764E3,4.88E3,8.04E2,5.179E3,4.085E3,3.001E3,4.1E1,3.8E1,1.143E3,9.749E3,8.36E2,9.6E1,4.751E3,5.01E2],"tree_param":{"num_deleted":"0","num_feature":"10","num_nodes":"225","size_leaf_vector":"1"}},{"base_weights":[1.3663812E-4,3.6466915E1,-2.2688005E0,4.128017E1,-5.8846602E0,4.763623E0,-7.3692207E0,6.0601505E1,3.1036345E1,-6.753491E0,-3.5232136E-1,6.429524E0,2.9783484E-1,5.307769E0,-1.0124171E1,3.3975758E1,7.181652E1,1.4303065E1,3.8820656E1,-7.961288E0,-5.8645544E0,-5.3786412E-2,6.876903E-1,9.8538885E0,1.7020154E0,-3.011087E0,1.0126401E1,1.2338556E1,-6.148124E0,-7.6639915E0,-1.3589044E1,4.096583E1,2.250174E1,8.2890305E1,6.422561E1,2.178736E1,1.2952691E1,4.6892063E1,3.294895E1,-1.5578766E-1,-8.10993E0,-7.483628E0,-4.4504075E0,-1.6812947E-1,5.1376777E0,1.0939947E1,5.5889726E0,1.1759998E0,6.428116E0,8.7349784E-1,-4.758599E0,1.2180001E1,6.7813535E0,2.0076784E1,7.587607E0,-4.6156545E0,-7.0055385E0,-9.870082E0,-1.9281943E0,-1.4582433E1,-1.1639096E1,4.790794E1,3.355945E1,4.7753456E-1,1.734934E1,6.3669014E-1,8.391894E-1,6.7566696E1,5.724643E1,3.496216E1,8.980558E0,1.6323658E1,1.01535635E1,5.1846264E1,4.178949E1,3.682711E1,3.0698818E1,-4.1031566E-2,3.84351E-2,-7.800908E0,-9.904044E-2,-7.865203E0,-4.6998878E0,-5.190962E0,-1.177406E0,2.2343624E0,-1.6983845E0,1.0532478E1,5.502942E-1,5.972791E0,1.1838053E1,7.6173577E0,4.8030734E0,4.8704467E0,5.059286E-1,9.610915E0,2.752014E0,-6.7678344E-1,2.1812196E0,-5.3397202E0,-1.056347E0,1.3348435E1,1.5831934E0,8.032573E0,1.538808E0,2.3763817E1,1.757658E1,4.3915753E0,1.0118643E1,-5.4949164E0,-2.5478237E0,-6.635659E0,-8.511812E0,-1.0922955E1,-7.6435714E0,-2.1811213E0,2.0502077E1,-1.6793436E-1,-1.43304205E1,-9.27902E0,-1.205606E1,5.9874403E-1,4.5191848E-1,3.1724665E-1,4.2864037E-1,1.5370825E-1,1.979487E-1,7.1696836E-1,6.116175E-1,8.124033E-1,5.433893E-1,2.4701953E-1,4.882663E-1,1.4084484E-1,1.432648E-2,2.0382197E-1,1.4366029E-1,9.033202E-2,1.7171262E-1,7.755304E-1,4.981137E-1,7.0991164E-1,3.990476E-1,3.5716337E-1,4.646588E-1,3.0749536E-1,6.0619548E-2,-9.147714E-2,-7.2682045E-2,-7.2888955E-2,-8.821188E-2,-6.481027E-2,6.9598645E-2,-2.3364335E-2,-5.8755454E-2,4.7057584E-2,-3.428322E-2,4.232406E-2,-2.0410208E-2,-3.7156165E-2,3.91798E-2,4.77062E-2,1.2783511E-1,-5.8187813E-2,2.5816036E-2,1.14323035E-1,4.8655614E-2,1.2867628E-1,9.262167E-2,8.3613835E-2,4.6323963E-2,4.839853E-2,-1.0739784E-1,-2.3677614E-2,5.581844E-2,2.4350839E-2,1.8977908E-3,1.453458E-1,8.324842E-2,4.6956882E-2,-2.7419669E-3,1.6230777E-1,-9.044492E-3,2.8293144E-2,-4.9094345E-2,-7.749519E-2,-3.9963562E-2,-1.3593693E-2,2.691587E-1,1.5087193E-1,1.0247562E-1,1.2275851E-2,2.9951468E-1,8.390236E-2,-5.3222016E-2,5.4921345E-3,2.2149312E-1,4.0348038E-1,2.349727E-1,8.243082E-2,1.8034668E-1,6.2479097E-2,2.9325742E-2,1.1260285E-1,5.51347E-2,-6.6936664E-2,-4.582533E-2,-3.4242332E-2,-8.087958E-3,-6.2630646E-2,-7.1340986E-2,-8.260061E-2,-1.08647056E-1,-1.15028925E-1,-9.9981144E-2,-4.570929E-2,-8.119601E-2,-3.94989E-2,2.2706357E-3,1.04390495E-1,3.0813488E-1,-1.302779E-1,-1.4481792E-1,-9.506406E-2,-7.2212815E-2,-1.2283201E-1,-9.881892E-2],"categories":[],"categories_nodes":[],"categories_segments":[],"categories_sizes":[],"default_left":[0,0,0,0,0,0,0,0,0,0,0,0,0,0,0,0,0,0,0,0,0,0,0,0,0,0,0,0,0,0,0,0,0,0,0,0,0,0,0,0,0,0,0,0,0,0,0,0,0,0,0,0,0,0,0,0,0,0,0,0,0,0,0,0,0,0,0,0,0,0,0,0,0,0,0,0,0,0,0,0,0,0,0,0,0,0,0,0,0,0,0,0,0,0,0,0,0,0,0,0,0,0,0,0,0,0,0,0,0,0,0,0,0,0,0,0,0,0,0,0,0,0,0,0,0,0,0,0,0,0,0,0,0,0,0,0,0,0,0,0,0,0,0,0,0,0,0,0,0,0,0,0,0,0,0,0,0,0,0,0,0,0,0,0,0,0,0,0,0,0,0,0,0,0,0,0,0,0,0,0,0,0,0,0,0,0,0,0,0,0,0,0,0,0,0,0,0,0,0,0,0,0,0,0,0,0,0,0,0,0,0,0,0,0,0,0,0,0,0,0,0,0,0,0,0,0,0],"id":1,"left_children":[1,3,5,7,9,11,13,15,17,19,21,23,25,27,29,31,33,35,37,39,41,-1,43,45,47,49,51,53,55,57,59,61,63,65,67,69,71,73,75,77,79,81,83,85,87,89,91,93,95,97,99,101,103,105,107,109,111,113,115,117,119,121,123,-1,125,-1,-1,127,129,131,133,135,137,139,141,143,145,-1,-1,147,-1,149,151,153,155,157,159,161,163,165,167,169,171,173,175,177,179,181,183,185,187,189,191,193,195,197,199,201,203,205,207,209,211,213,215,217,219,-1,221,223,225,-1,-1,-1,-1,-1,-1,-1,-1,-1,-1,-1,-1,-1,-1,-1,-1,-1,-1,-1,-1,-1,-1,-1,-1,-1,-1,-1,-1,-1,-1,-1,-1,-1,-1,-1,-1,-1,-1,-1,-1,-1,-1,-1,-1,-1,-1,-1,-1,-1,-1,-1,-1,-1,-1,-1,-1,-1,-1,-1,-1,-1,-1,-1,-1,-1,-1,-1,-1,-1,-1,-1,-1,-1,-1,-1,-1,-1,-1,-1,-1,-1,-1,-1,-1,-1,-1,-1,-1,-1,-1,-1,-1,-1,-1,-1,-1,-1,-1,-1,-1,-1,-1,-1,-1,-1,-1],"loss_changes":[8.140622E6,1.175025E6,3.322302E6,1.022378E6,2.828746E3,2.896797E5,1.8750438E6,5.32666E5,4.402345E5,4.9980078E2,4.2712073E2,4.59079E5,3.441128E5,7.720896E5,3.75839E5,4.1827E4,1.005925E5,1.05925E4,1.078855E5,2.4586523E2,6.46709E2,0E0,2.5983414E2,7.6115875E4,2.961068E4,5.3740797E4,1.8224312E4,2.1822544E5,4.758375E3,3.2635762E5,3.529975E4,1.53595625E4,2.571332E4,4.7205E3,1.366725E4,2.7188523E4,8.458531E3,2.2354E4,1.056275E4,9.470405E1,3.861328E1,1.0855615E2,3.841255E2,2.1702748E2,2.6643225E2,5.8399875E4,5.2877266E3,2.65403E4,1.3932E4,4.982642E3,1.17413125E4,2.040861E4,6.652168E3,2.0406562E4,2.9740266E4,2.3696133E3,1.245E3,4.3585E4,4.0699008E4,6.5165E3,5.9745E3,2.7545E3,1.4228594E3,0E0,5.23125E2,0E0,0E0,8.921E3,1.3026E4,1.017407E4,3.2158354E3,2.9885156E3,3.791793E3,2.16645E4,2.3750125E4,3.5545E3,8.806875E2,0E0,0E0,6.480469E1,0E0,1.265625E0,4.396923E2,2.4226758E2,4.2665073E2,2.0511371E2,4.2242004E2,3.8653564E0,1.0558473E2,1.2088641E4,2.931625E4,2.028918E3,1.4296641E3,8.488867E3,5.5356143E3,3.9252773E3,3.2657798E3,4.3451113E3,6.139582E3,1.5245547E4,6.3259336E3,7.8574062E3,1.6277504E3,3.9613867E3,4.0058562E3,3.0745312E3,5.6233438E3,4.3936465E3,1.073675E4,9.744551E2,5.9620166E2,3.0446875E2,1.8095703E2,6.667E3,8.715531E3,3.0188133E4,7.979461E3,0E0,1.95925E3,3.6789844E2,2.4728125E3,0E0,0E0,0E0,0E0,0E0,0E0,0E0,0E0,0E0,0E0,0E0,0E0,0E0,0E0,0E0,0E0,0E0,0E0,0E0,0E0,0E0,0E0,0E0,0E0,0E0,0E0,0E0,0E0,0E0,0E0,0E0,0E0,0E0,0E0,0E0,0E0,0E0,0E0,0E0,0E0,0E0,0E0,0E0,0E0,0E0,0E0,0E0,0E0,0E0,0E0,0E0,0E0,0E0,0E0,0E0,0E0,0E0,0E0,0E0,0E0,0E0,0E0,0E0,0E0,0E0,0E0,0E0,0E0,0E0,0E0,0E0,0E0,0E0,0E0,0E0,0E0,0E0,0E0,0E0,0E0,0E0,0E0,0E0,0E0,0E0,0E0,0E0,0E0,0E0,0E0,0E0,0E0,0E0,0E0,0E0,0E0,0E0,0E0,0E0,0E0,0E0,0E0,0E0,0E0,0E0,0E0],"parents":[2147483647,0,0,1,1,2,2,3,3,4,4,5,5,6,6,7,7,8,8,9,9,10,10,11,11,12,12,13,13,14,14,15,15,16,16,17,17,18,18,19,19,20,20,22,22,23,23,24,24,25,25,26,26,27,27,28,28,29,29,30,30,31,31,32,32,33,33,34,34,35,35,36,36,37,37,38,38,39,39,40,40,41,41,42,42,43,43,44,44,45,45,46,46,47,47,48,48,49,49,50,50,51,51,52,52,53,53,54,54,55,55,56,56,57,57,58,58,59,59,60,60,61,61,62,62,64,64,67,67,68,68,69,69,70,70,71,71,72,72,73,73,74,74,75,75,76,76,79,79,81,81,82,82,83,83,84,84,85,85,86,86,87,87,88,88,89,89,90,90,91,91,92,92,93,93,94,94,95,95,96,96,97,97,98,98,99,99,100,100,101,101,102,102,103,103,104,104,105,105,106,106,107,107,108,108,109,109,110,110,111,111,112,112,113,113,114,114,115,115,116,116,118,118,119,119,120,120],"right_children":[2,4,6,8,10,12,14,16,18,20,22,24,26,28,30,32,34,36,38,40,42,-1,44,46,48,50,52,54,56,58,60,62,64,66,68,70,72,74,76,78,80,82,84,86,88,90,92,94,96,98,100,102,104,106,108,110,112,114,116,118,120,122,124,-1,126,-1,-1,128,130,132,134,136,138,140,142,144,146,-1,-1,148,-1,150,152,154,156,158,160,162,164,166,168,170,172,174,176,178,180,182,184,186,188,190,192,194,196,198,200,202,204,206,208,210,212,214,216,218,220,-1,222,224,226,-1,-1,-1,-1,-1,-1,-1,-1,-1,-1,-1,-1,-1,-1,-1,-1,-1,-1,-1,-1,-1,-1,-1,-1,-1,-1,-1,-1,-1,-1,-1,-1,-1,-1,-1,-1,-1,-1,-1,-1,-1,-1,-1,-1,-1,-1,-1,-1,-1,-1,-1,-1,-1,-1,-1,-1,-1,-1,-1,-1,-1,-1,-1,-1,-1,-1,-1,-1,-1,-1,-1,-1,-1,-1,-1,-1,-1,-1,-1,-1,-1,-1,-1,-1,-1,-1,-1,-1,-1,-1,-1,-1,-1,-1,-1,-1,-1,-1,-1,-1,-1,-1,-1,-1,-1,-1],"split_conditions":[1.5626647E-1,2E0,1E0,9.746154E-2,8.557024E1,5.412377E-1,2.8201544E-1,1E0,1E0,4.8720776E1,6.1645232E-2,1.5035012E1,8.916668E-1,2E0,2E0,8.2479134E-2,7.316818E-2,4.192527E1,1.2296668E-1,3.0720758E1,1.1714198E-1,-5.3786412E-2,1.2787466E2,5.0431913E-1,4.7324757E1,5.799004E-1,5.594314E0,2.0949645E-1,2.1679617E-1,1.6433886E1,1.5194203E1,1.05307335E2,5.5262585E1,7.835122E1,9.057886E-2,1.4060892E-1,1.2296668E-1,1.1099977E-1,1.351353E-1,1.4615507E-1,4.7324757E1,7.835122E1,6.5639885E1,7.316818E-2,8.2479134E-2,4.04874E-1,5.138674E-1,1.5891245E1,1.9902737E-1,1.0503101E1,7.859666E-1,2.028063E0,9.399356E0,1.7923923E-1,2.6001743E1,4.395108E1,2.7060425E-1,1.3171712E1,4.5107613E1,7.182829E0,3.0380818E-1,6.5639885E1,7.316818E-2,4.7753456E-1,7.835122E1,6.3669014E-1,8.391894E-1,7.835122E1,5.334669E1,3.9885715E1,3.818688E1,5.334669E1,9.382806E1,4.5107613E1,4.0836666E1,6.910041E1,1.2787466E2,-4.1031566E-2,3.84351E-2,3.818688E1,-9.904044E-2,1.0461461E-1,1.1099977E-1,5.013853E1,6.910041E1,1.05307335E2,1.351353E-1,7.316818E-2,9.057886E-2,1.2500372E1,1.3280215E1,1.2446067E1,1.4963011E1,3.4452775E-1,2.2304481E-1,1.661321E-1,2.4240991E-1,7.696461E0,1.4887401E1,8.869837E0,3.2438683E1,4.768677E0,5.3275976E0,1.711128E0,3.1282543E1,2.6400047E1,2.5597591E1,2.5522658E-1,2.6160464E-1,1.9152296E-1,5.5262585E1,2.4910402E-1,3.3698223E1,1.100456E1,3.6179712E-1,2.019789E1,4.389276E-1,-1.6793436E-1,4.0122902E-1,3.0720758E1,4.5773217E-1,5.9874403E-1,4.5191848E-1,3.1724665E-1,4.2864037E-1,1.5370825E-1,1.979487E-1,7.1696836E-1,6.116175E-1,8.124033E-1,5.433893E-1,2.4701953E-1,4.882663E-1,1.4084484E-1,1.432648E-2,2.0382197E-1,1.4366029E-1,9.033202E-2,1.7171262E-1,7.755304E-1,4.981137E-1,7.0991164E-1,3.990476E-1,3.5716337E-1,4.646588E-1,3.0749536E-1,6.0619548E-2,-9.147714E-2,-7.2682045E-2,-7.2888955E-2,-8.821188E-2,-6.481027E-2,6.9598645E-2,-2.3364335E-2,-5.8755454E-2,4.7057584E-2,-3.428322E-2,4.232406E-2,-2.0410208E-2,-3.7156165E-2,3.91798E-2,4.77062E-2,1.2783511E-1,-5.8187813E-2,2.5816036E-2,1.14323035E-1,4.8655614E-2,1.2867628E-1,9.262167E-2,8.3613835E-2,4.6323963E-2,4.839853E-2,-1.0739784E-1,-2.3677614E-2,5.581844E-2,2.4350839E-2,1.8977908E-3,1.453458E-1,8.324842E-2,4.6956882E-2,-2.7419669E-3,1.6230777E-1,-9.044492E-3,2.8293144E-2,-4.9094345E-2,-7.749519E-2,-3.9963562E-2,-1.3593693E-2,2.691587E-1,1.5087193E-1,1.0247562E-1,1.2275851E-2,2.9951468E-1,8.390236E-2,-5.3222016E-2,5.4921345E-3,2.2149312E-1,4.0348038E-1,2.349727E-1,8.243082E-2,1.8034668E-1,6.2479097E-2,2.9325742E-2,1.1260285E-1,5.51347E-2,-6.6936664E-2,-4.582533E-2,-3.4242332E-2,-8.087958E-3,-6.2630646E-2,-7.1340986E-2,-8.260061E-2,-1.08647056E-1,-1.15028925E-1,-9.9981144E-2,-4.570929E-2,-8.119601E-2,-3.94989E-2,2.2706357E-3,1.04390495E-1,3.0813488E-1,-1.302779E-1,-1.4481792E-1,-9.506406E-2,-7.2212815E-2,-1.2283201E-1,-9.881892E-2],"split_indices":[8,9,9,8,5,8,8,9,9,5,8,5,8,9,9,8,8,5,8,5,8,0,5,8,5,8,5,8,8,5,5,5,5,5,8,8,8,8,8,8,5,5,5,8,8,8,8,5,8,5,8,8,5,8,5,5,8,5,5,5,8,5,8,0,5,0,0,5,5,5,5,5,5,5,5,5,5,0,0,5,0,8,8,5,5,5,8,8,8,5,5,5,5,8,8,8,8,5,5,5,5,5,5,8,5,5,5,8,8,8,5,8,5,5,8,5,8,0,8,5,8,0,0,0,0,0,0,0,0,0,0,0,0,0,0,0,0,0,0,0,0,0,0,0,0,0,0,0,0,0,0,0,0,0,0,0,0,0,0,0,0,0,0,0,0,0,0,0,0,0,0,0,0,0,0,0,0,0,0,0,0,0,0,0,0,0,0,0,0,0,0,0,0,0,0,0,0,0,0,0,0,0,0,0,0,0,0,0,0,0,0,0,0,0,0,0,0,0,0,0,0,0,0,0,0,0,0],"split_type":[0,0,0,0,0,0,0,0,0,0,0,0,0,0,0,0,0,0,0,0,0,0,0,0,0,0,0,0,0,0,0,0,0,0,0,0,0,0,0,0,0,0,0,0,0,0,0,0,0,0,0,0,0,0,0,0,0,0,0,0,0,0,0,0,0,0,0,0,0,0,0,0,0,0,0,0,0,0,0,0,0,0,0,0,0,0,0,0,0,0,0,0,0,0,0,0,0,0,0,0,0,0,0,0,0,0,0,0,0,0,0,0,0,0,0,0,0,0,0,0,0,0,0,0,0,0,0,0,0,0,0,0,0,0,0,0,0,0,0,0,0,0,0,0,0,0,0,0,0,0,0,0,0,0,0,0,0,0,0,0,0,0,0,0,0,0,0,0,0,0,0,0,0,0,0,0,0,0,0,0,0,0,0,0,0,0,0,0,0,0,0,0,0,0,0,0,0,0,0,0,0,0,0,0,0,0,0,0,0,0,0,0,0,0,0,0,0,0,0,0,0,0,0,0,0,0,0],"sum_hessian":[9.8385E4,5.762E3,9.2623E4,5.174E3,5.88E2,3.8937E4,5.3686E4,1.791E3,3.383E3,5.08E2,8E1,2.8358E4,1.0579E4,9.584E3,4.4102E4,5.32E2,1.259E3,1.075E3,2.308E3,2.12E2,2.96E2,1.3E1,6.7E1,1.6445E4,1.1913E4,7.915E3,2.664E3,5.939E3,3.645E3,2.5792E4,1.831E4,3.29E2,2.03E2,5.08E2,7.51E2,1.62E2,9.13E2,9.69E2,1.339E3,4E0,2.08E2,1.36E2,1.6E2,5.7E1,1E1,1.3106E4,3.339E3,1.0721E4,1.192E3,2.456E3,5.459E3,1.649E3,1.015E3,2.258E3,3.681E3,1.31E3,2.335E3,1.8627E4,7.165E3,1.2126E4,6.184E3,1.67E2,1.62E2,3.3E1,1.7E2,2.9E1,4.79E2,5.02E2,2.49E2,7.9E1,8.3E1,4.12E2,5.01E2,4.87E2,4.82E2,4.86E2,8.53E2,2E0,2E0,1.82E2,2.6E1,1.18E2,1.8E1,1.3E2,3E1,2.2E1,3.5E1,4E0,6E0,2.008E3,1.1098E4,9.3E2,2.409E3,1.645E3,9.076E3,6.38E2,5.54E2,1.124E3,1.332E3,4.718E3,7.41E2,1.485E3,1.64E2,8.19E2,1.96E2,9.09E2,1.349E3,1.628E3,2.053E3,9.18E2,3.92E2,1.879E3,4.56E2,1.2644E4,5.983E3,7.086E3,7.9E1,1.234E3,1.0892E4,9.32E2,5.252E3,2.7E1,1.4E2,1.39E2,2.3E1,9.8E1,7.2E1,2.99E2,2.03E2,2.4E1,2.25E2,4.7E1,3.2E1,4.9E1,3.4E1,1.31E2,2.81E2,4.34E2,6.7E1,3.3E1,4.54E2,2.7E1,4.55E2,4.4E2,4.6E1,8.51E2,2E0,4.7E1,1.35E2,7.9E1,3.9E1,1.6E1,2E0,2.6E1,1.04E2,8E0,2.2E1,1.5E1,7E0,2.6E1,9E0,2E0,2E0,1E0,5E0,3.37E2,1.671E3,7.926E3,3.172E3,7.43E2,1.87E2,2.404E3,5E0,1.47E2,1.498E3,1.277E3,7.799E3,1.3E2,5.08E2,3.37E2,2.17E2,1.4E1,1.11E3,1.221E3,1.11E2,1.687E3,3.031E3,7.34E2,7E0,9.49E2,5.36E2,1.63E2,1E0,7.98E2,2.1E1,1.88E2,8E0,1.2E1,8.97E2,6.4E1,1.285E3,7.15E2,9.13E2,1.644E3,4.09E2,3.94E2,5.24E2,2.6E2,1.32E2,1.083E3,7.96E2,4.16E2,4E1,7.764E3,4.88E3,8.04E2,5.179E3,4.085E3,3.001E3,4.1E1,3.8E1,1.143E3,9.749E3,8.36E2,9.6E1,4.751E3,5.01E2],"tree_param":{"num_deleted":"0","num_feature":"10","num_nodes":"227","size_leaf_vector":"1"}},{"base_weights":[2.6988995E-4,-2.3881102E0,3.1564432E1,-8.0227995E-1,-1.1157726E1,2.255227E1,4.9567272E1,-1.6505737E0,6.5172925E0,-8.881348E0,-1.310618E1,1.6787716E1,2.6658072E1,4.347598E1,6.1677574E1,-4.408495E0,-8.1726867E-1,4.367063E0,9.385702E0,-1.08556795E1,-7.028601E0,-1.3666426E1,-1.0316723E1,1.7395245E1,7.8382854E0,2.9576777E1,1.96025E1,4.625968E1,2.3102577E1,6.256409E1,4.4821606E1,6.008007E-1,-6.0051703E0,1.2874488E0,-2.6650584E0,3.2556827E0,5.1088176E0,7.4168158E0,1.0360936E1,-1.565644E0,-1.1750909E1,-5.712993E0,-8.901699E0,-8.240311E0,-1.3780685E1,4.838312E0,-1.070105E1,1.5883956E1,1.9653725E1,2.0420248E1,4.6144123E0,3.9520016E1,2.8450836E1,2.182141E1,1.4508743E1,6.7663475E1,4.367422E1,2.2079195E1,6.440253E-1,6.1060234E1,4.0614476E0,5.0758224E1,1.7414194E1,3.7541888E0,-9.090791E-1,-7.2278314E0,-3.5649703E0,-4.7557154E0,2.0215764E0,-3.362418E0,-5.5251583E-2,2.3899934E0,4.5794725E0,3.5015852E0,5.604976E0,7.5005207E0,-7.2626796E0,1.0414716E1,-6.362094E-2,-8.939903E0,-2.0385428E-1,-1.2606067E1,-1.0022802E1,-7.5292706E0,-4.814315E0,-9.424771E0,-4.56711E0,-3.8443942E0,-1.3782611E1,-1.3137034E1,-1.4300654E1,-4.593004E0,2.9450897E1,-1.1327736E1,-3.4748836E0,2.1177984E1,1.522083E1,2.401845E1,1.704162E1,1.1048332E1,3.8954525E1,6.0826874E0,-1.9652193E0,3.4119064E1,4.6433422E-1,2.5989923E1,3.112418E1,1.9325981E1,2.6788212E1,1.675063E1,9.058452E0,4.8145255E-1,8.598742E1,4.6402897E1,3.3425762E1,2.3543879E1,1.18220415E1,6.1223255E1,1.3101286E0,5.24266E1,-2.1490803E-2,1.5634543E0,2.1719625E1,-4.9870983E-2,6.370008E-2,2.208663E-1,-1.0403869E-2,-5.7888065E-2,-9.504943E-2,-2.855663E-2,-5.5494264E-2,-4.8655067E-2,1.8311502E-1,7.046013E-4,3.363408E-2,-1.4237685E-2,-3.839936E-2,-3.099415E-2,5.521286E-3,3.7678193E-2,1.2953846E-2,3.7415788E-2,6.497238E-2,2.9261714E-2,5.6474775E-2,4.8989944E-2,6.805292E-2,7.368026E-2,2.787421E-1,-8.0064826E-2,-1.39992805E-2,9.73079E-2,1.1753978E-1,-8.2069546E-2,-1.4034417E-1,2.980586E-2,-5.4254774E-2,-1.2646644E-1,-8.151298E-2,-8.965623E-2,-1.1332998E-1,-1.3647766E-1,-7.147059E-2,-6.722229E-2,-4.1766908E-2,-9.20215E-2,-1.1787757E-1,-5.9161756E-2,1.5222541E-2,-2.6876744E-2,-1.3195962E-1,-1.6282964E-1,-1.619009E-2,-7.433221E-2,-1.3245963E-1,-1.6586713E-1,-1.4213142E-1,-1.1578446E-1,4.7151044E-2,5.2592003E-1,-1.2623483E-1,-1.20051466E-1,-9.846187E-2,-5.478144E-2,-1.8030688E-2,2.3782514E-1,1.5068905E-1,1.3596521E-1,1.6956101E-1,2.7661186E-1,1.8841459E-1,1.6033578E-1,2.1460755E-1,-8.162998E-2,1.5434799E-1,5.406415E-1,-4.249569E-2,5.0348744E-2,2.1212034E-1,-3.4875862E-2,4.615554E-2,4.2483413E-1,3.1813893E-1,2.6771748E-1,1.5893374E-1,3.1479028E-1,2.2940893E-2,2.2740549E-1,1.7064816E-1,2.290297E-1,3.370179E-1,1.2533103E-1,1.915613E-1,1.06404915E-1,-1.9724462E-2,7.249056E-1,9.531006E-1,4.0594596E-1,4.818398E-1,3.7265685E-1,2.1922901E-1,2.4757396E-1,1.6000584E-1,2.2199733E-2,1.4737433E-1,5.398368E-1,6.289398E-1,5.7596207E-4,1.9075966E-2,-6.205883E-3,5.4103714E-1,3.3294115E-2,-9.8423E-3,2.4478517E-1,2.5831403E-2],"categories":[],"categories_nodes":[],"categories_segments":[],"categories_sizes":[],"default_left":[0,0,0,0,0,0,0,0,0,0,0,0,0,0,0,0,0,0,0,0,0,0,0,0,0,0,0,0,0,0,0,0,0,0,0,0,0,0,0,0,0,0,0,0,0,0,0,0,0,0,0,0,0,0,0,0,0,0,0,0,0,0,0,0,0,0,0,0,0,0,0,0,0,0,0,0,0,0,0,0,0,0,0,0,0,0,0,0,0,0,0,0,0,0,0,0,0,0,0,0,0,0,0,0,0,0,0,0,0,0,0,0,0,0,0,0,0,0,0,0,0,0,0,0,0,0,0,0,0,0,0,0,0,0,0,0,0,0,0,0,0,0,0,0,0,0,0,0,0,0,0,0,0,0,0,0,0,0,0,0,0,0,0,0,0,0,0,0,0,0,0,0,0,0,0,0,0,0,0,0,0,0,0,0,0,0,0,0,0,0,0,0,0,0,0,0,0,0,0,0,0,0,0,0,0,0,0,0,0,0,0,0,0,0,0,0,0,0,0,0,0,0,0,0,0,0,0,0,0,0,0,0,0,0,0],"id":2,"left_children":[1,3,5,7,9,11,13,15,17,19,21,23,25,27,29,31,33,35,37,39,41,43,45,47,49,51,53,55,57,59,61,63,65,67,69,71,73,75,77,79,81,83,85,87,89,91,93,95,97,99,101,103,105,107,109,111,113,115,-1,117,-1,119,121,123,125,127,129,131,133,135,137,139,141,143,145,147,149,151,-1,153,155,157,159,161,163,165,167,169,171,173,175,177,179,181,183,185,187,189,191,193,195,197,199,201,-1,203,205,207,209,211,213,-1,215,217,219,221,223,225,227,229,-1,231,233,-1,-1,-1,-1,-1,-1,-1,-1,-1,-1,-1,-1,-1,-1,-1,-1,-1,-1,-1,-1,-1,-1,-1,-1,-1,-1,-1,-1,-1,-1,-1,-1,-1,-1,-1,-1,-1,-1,-1,-1,-1,-1,-1,-1,-1,-1,-1,-1,-1,-1,-1,-1,-1,-1,-1,-1,-1,-1,-1,-1,-1,-1,-1,-1,-1,-1,-1,-1,-1,-1,-1,-1,-1,-1,-1,-1,-1,-1,-1,-1,-1,-1,-1,-1,-1,-1,-1,-1,-1,-1,-1,-1,-1,-1,-1,-1,-1,-1,-1,-1,-1,-1,-1,-1,-1,-1,-1,-1,-1,-1,-1,-1],"loss_changes":[7.417122E6,1.2720199E6,1.1217765E6,4.8097138E5,6.2010625E4,1.08757E5,1.67573E5,1.5952756E5,4.9578438E4,2.3564906E4,1.1650125E4,1.03135625E4,5.48775E4,8.62135E4,8.702E3,1.28830875E5,2.0733E5,3.7754766E3,6.5399375E3,2.5987969E4,8.1723906E3,3.78E3,7.4255938E3,5.82825E3,4.93554E3,2.018075E4,8.62375E3,7.1918E4,6.4817266E3,3.5187325E5,5.949797E3,1.854367E4,3.6415188E4,1.1057938E5,5.1665234E4,2.1022637E3,2.1789219E3,1.4613867E3,2.1365625E3,2.7698223E3,4.0883438E3,3.1678594E3,3.0744922E3,3.1629932E3,1.87E3,7.563399E3,5.553375E3,3.4796562E3,7.7652812E3,3.9121602E3,9.780249E2,5.5474688E3,1.046075E4,6.2867344E3,2.8174648E3,4.7361812E4,3.228625E4,2.4859844E3,0E0,7.00125E3,0E0,3.1138203E3,5.8024097E2,2.8865322E4,7.9763867E3,2.6605188E4,5.725707E3,6.927035E3,5.8183758E4,2.0732984E4,1.1071463E4,1.6797573E3,1.145501E3,7.897827E2,1.7504375E3,2.8692422E3,1.931665E1,1.9877344E3,0E0,4.53833E1,3.9071108E3,2.4109375E2,1.2128672E3,1.4178477E3,1.5728789E3,5.3646875E2,1.241249E3,7.7581934E2,1.7376104E3,1.6163438E3,4.425E2,1.6151036E3,9.426725E3,1.02190625E3,3.2503064E2,1.5191562E3,2.4922344E3,4.4951406E3,1.6694219E3,1.6428516E3,5.452131E3,1.1931238E3,2.0644586E2,7.8865625E2,0E0,6.6630625E3,8.2756875E3,2.4609531E3,4.089961E3,1.4947539E3,1.2949341E3,0E0,2.2763125E3,7.90275E3,1.05789375E4,1.0685E3,6.671282E2,5.37375E3,2.1351738E0,2.9694688E3,0E0,1.6774212E1,3.063369E2,0E0,0E0,0E0,0E0,0E0,0E0,0E0,0E0,0E0,0E0,0E0,0E0,0E0,0E0,0E0,0E0,0E0,0E0,0E0,0E0,0E0,0E0,0E0,0E0,0E0,0E0,0E0,0E0,0E0,0E0,0E0,0E0,0E0,0E0,0E0,0E0,0E0,0E0,0E0,0E0,0E0,0E0,0E0,0E0,0E0,0E0,0E0,0E0,0E0,0E0,0E0,0E0,0E0,0E0,0E0,0E0,0E0,0E0,0E0,0E0,0E0,0E0,0E0,0E0,0E0,0E0,0E0,0E0,0E0,0E0,0E0,0E0,0E0,0E0,0E0,0E0,0E0,0E0,0E0,0E0,0E0,0E0,0E0,0E0,0E0,0E0,0E0,0E0,0E0,0E0,0E0,0E0,0E0,0E0,0E0,0E0,0E0,0E0,0E0,0E0,0E0,0E0,0E0,0E0,0E0,0E0,0E0,0E0,0E0,0E0,0E0,0E0],"parents":[2147483647,0,0,1,1,2,2,3,3,4,4,5,5,6,6,7,7,8,8,9,9,10,10,11,11,12,12,13,13,14,14,15,15,16,16,17,17,18,18,19,19,20,20,21,21,22,22,23,23,24,24,25,25,26,26,27,27,28,28,29,29,30,30,31,31,32,32,33,33,34,34,35,35,36,36,37,37,38,38,39,39,40,40,41,41,42,42,43,43,44,44,45,45,46,46,47,47,48,48,49,49,50,50,51,51,52,52,53,53,54,54,55,55,56,56,57,57,59,59,61,61,62,62,63,63,64,64,65,65,66,66,67,67,68,68,69,69,70,70,71,71,72,72,73,73,74,74,75,75,76,76,77,77,79,79,80,80,81,81,82,82,83,83,84,84,85,85,86,86,87,87,88,88,89,89,90,90,91,91,92,92,93,93,94,94,95,95,96,96,97,97,98,98,99,99,100,100,101,101,102,102,103,103,105,105,106,106,107,107,108,108,109,109,110,110,112,112,113,113,114,114,115,115,116,116,117,117,118,118,119,119,121,121,122,122],"right_children":[2,4,6,8,10,12,14,16,18,20,22,24,26,28,30,32,34,36,38,40,42,44,46,48,50,52,54,56,58,60,62,64,66,68,70,72,74,76,78,80,82,84,86,88,90,92,94,96,98,100,102,104,106,108,110,112,114,116,-1,118,-1,120,122,124,126,128,130,132,134,136,138,140,142,144,146,148,150,152,-1,154,156,158,160,162,164,166,168,170,172,174,176,178,180,182,184,186,188,190,192,194,196,198,200,202,-1,204,206,208,210,212,214,-1,216,218,220,222,224,226,228,230,-1,232,234,-1,-1,-1,-1,-1,-1,-1,-1,-1,-1,-1,-1,-1,-1,-1,-1,-1,-1,-1,-1,-1,-1,-1,-1,-1,-1,-1,-1,-1,-1,-1,-1,-1,-1,-1,-1,-1,-1,-1,-1,-1,-1,-1,-1,-1,-1,-1,-1,-1,-1,-1,-1,-1,-1,-1,-1,-1,-1,-1,-1,-1,-1,-1,-1,-1,-1,-1,-1,-1,-1,-1,-1,-1,-1,-1,-1,-1,-1,-1,-1,-1,-1,-1,-1,-1,-1,-1,-1,-1,-1,-1,-1,-1,-1,-1,-1,-1,-1,-1,-1,-1,-1,-1,-1,-1,-1,-1,-1,-1,-1,-1,-1],"split_conditions":[8.22038E2,1E1,2.0081149E3,3.61416E2,1.2E1,1.0947288E3,4.0678772E3,6.0278854E1,5.467409E2,6.3318222E1,8.962162E1,3.4E1,1E0,1E0,7E1,2.0678919E1,1.0425119E2,1E1,6.1600195E2,1.457843E1,1.1E1,9.390435E0,9.028915E1,9.6663855E2,8.664691E2,6E0,2E0,6E0,1.17E2,6.9E1,1E0,9.390435E0,5.1756554E1,3E0,2.3590872E2,4.5473645E2,3.971801E2,9E0,5.8E1,4.5690265E0,5.3022408E1,6E0,1.6957248E2,1.4E1,1.4E1,1.5E1,2.1241045E2,6E0,1.1E1,4.7E1,5.3E1,1.4705863E3,1.4705863E3,1.4705863E3,1.4705863E3,2.533694E3,2.9E1,3.0718542E3,6.440253E-1,2E0,4.0614476E0,1.27E2,7.2E1,4.5690265E0,5E0,7E0,8E0,1.9E1,7E0,1.1626638E2,6E0,3.971801E2,9E0,2E1,3E0,8E0,2.6E1,7.402695E2,-6.362094E-2,6E0,1.0702163E1,1.3E1,1.1E1,6.536891E1,7.708818E1,1.2E1,1.6E1,6E0,7.936263E0,1.457843E1,2.0678919E1,7E0,6E0,1.28314E2,2.5343315E2,1E0,1.4E1,1E0,2.4E1,3.5E1,4E0,5.1E1,1.0267434E3,1.1758771E3,4.6433422E-1,3.7E1,6.3E1,1.2E1,2.1E1,1.3E1,4E0,4.8145255E-1,3.0718542E3,2.2520122E3,4.8E1,4.3E1,1E1,1.3E1,3E0,7.1E1,-2.1490803E-2,7.1E1,5.870901E3,-4.9870983E-2,6.370008E-2,2.208663E-1,-1.0403869E-2,-5.7888065E-2,-9.504943E-2,-2.855663E-2,-5.5494264E-2,-4.8655067E-2,1.8311502E-1,7.046013E-4,3.363408E-2,-1.4237685E-2,-3.839936E-2,-3.099415E-2,5.521286E-3,3.7678193E-2,1.2953846E-2,3.7415788E-2,6.497238E-2,2.9261714E-2,5.6474775E-2,4.8989944E-2,6.805292E-2,7.368026E-2,2.787421E-1,-8.0064826E-2,-1.39992805E-2,9.73079E-2,1.1753978E-1,-8.2069546E-2,-1.4034417E-1,2.980586E-2,-5.4254774E-2,-1.2646644E-1,-8.151298E-2,-8.965623E-2,-1.1332998E-1,-1.3647766E-1,-7.147059E-2,-6.722229E-2,-4.1766908E-2,-9.20215E-2,-1.1787757E-1,-5.9161756E-2,1.5222541E-2,-2.6876744E-2,-1.3195962E-1,-1.6282964E-1,-1.619009E-2,-7.433221E-2,-1.3245963E-1,-1.6586713E-1,-1.4213142E-1,-1.1578446E-1,4.7151044E-2,5.2592003E-1,-1.2623483E-1,-1.20051466E-1,-9.846187E-2,-5.478144E-2,-1.8030688E-2,2.3782514E-1,1.5068905E-1,1.3596521E-1,1.6956101E-1,2.7661186E-1,1.8841459E-1,1.6033578E-1,2.1460755E-1,-8.162998E-2,1.5434799E-1,5.406415E-1,-4.249569E-2,5.0348744E-2,2.1212034E-1,-3.4875862E-2,4.615554E-2,4.2483413E-1,3.1813893E-1,2.6771748E-1,1.5893374E-1,3.1479028E-1,2.2940893E-2,2.2740549E-1,1.7064816E-1,2.290297E-1,3.370179E-1,1.2533103E-1,1.915613E-1,1.06404915E-1,-1.9724462E-2,7.249056E-1,9.531006E-1,4.0594596E-1,4.818398E-1,3.7265685E-1,2.1922901E-1,2.4757396E-1,1.6000584E-1,2.2199733E-2,1.4737433E-1,5.398368E-1,6.289398E-1,5.7596207E-4,1.9075966E-2,-6.205883E-3,5.4103714E-1,3.3294115E-2,-9.8423E-3,2.4478517E-1,2.5831403E-2],"split_indices":[0,2,0,0,2,0,0,0,0,0,0,4,2,2,4,0,0,4,0,0,2,0,0,0,0,4,2,4,4,4,2,0,0,2,0,0,0,2,4,0,0,4,0,2,2,2,0,4,4,4,4,0,0,0,0,0,4,0,0,2,0,4,4,0,4,2,2,4,4,0,4,0,4,4,2,2,4,0,0,4,0,4,2,0,0,4,4,4,0,0,0,4,4,0,0,2,4,2,4,4,2,4,0,0,0,4,4,4,4,4,2,0,0,0,4,4,4,4,2,4,0,4,0,0,0,0,0,0,0,0,0,0,0,0,0,0,0,0,0,0,0,0,0,0,0,0,0,0,0,0,0,0,0,0,0,0,0,0,0,0,0,0,0,0,0,0,0,0,0,0,0,0,0,0,0,0,0,0,0,0,0,0,0,0,0,0,0,0,0,0,0,0,0,0,0,0,0,0,0,0,0,0,0,0,0,0,0,0,0,0,0,0,0,0,0,0,0,0,0,0,0,0,0,0,0,0,0,0,0,0,0,0,0,0,0],"split_type":[0,0,0,0,0,0,0,0,0,0,0,0,0,0,0,0,0,0,0,0,0,0,0,0,0,0,0,0,0,0,0,0,0,0,0,0,0,0,0,0,0,0,0,0,0,0,0,0,0,0,0,0,0,0,0,0,0,0,0,0,0,0,0,0,0,0,0,0,0,0,0,0,0,0,0,0,0,0,0,0,0,0,0,0,0,0,0,0,0,0,0,0,0,0,0,0,0,0,0,0,0,0,0,0,0,0,0,0,0,0,0,0,0,0,0,0,0,0,0,0,0,0,0,0,0,0,0,0,0,0,0,0,0,0,0,0,0,0,0,0,0,0,0,0,0,0,0,0,0,0,0,0,0,0,0,0,0,0,0,0,0,0,0,0,0,0,0,0,0,0,0,0,0,0,0,0,0,0,0,0,0,0,0,0,0,0,0,0,0,0,0,0,0,0,0,0,0,0,0,0,0,0,0,0,0,0,0,0,0,0,0,0,0,0,0,0,0,0,0,0,0,0,0,0,0,0,0,0,0,0,0,0,0,0,0],"sum_hessian":[9.8385E4,9.1465E4,6.92E3,7.7459E4,1.4006E4,4.613E3,2.307E3,6.9415E4,8.044E3,6.462E3,7.544E3,1.921E3,2.692E3,1.538E3,7.69E2,1.6106E4,5.3309E4,4.599E3,3.445E3,3.126E3,3.336E3,6.279E3,1.265E3,1.798E3,1.23E2,1.902E3,7.9E2,1.352E3,1.86E2,7.28E2,4.1E1,3.893E3,1.2213E4,2.4922E4,2.8387E4,1.843E3,2.756E3,1.144E3,2.301E3,2.75E2,2.851E3,1.962E3,1.374E3,1.31E2,6.148E3,3.1E1,1.234E3,1.082E3,7.16E2,2.4E1,9.9E1,1.9E2,1.712E3,5.48E2,2.42E2,1.43E2,1.209E3,1.83E2,3E0,7.26E2,2E0,3.3E1,8E0,1.26E3,2.633E3,8.135E3,4.078E3,2.699E3,2.2223E4,2.2401E4,5.986E3,1.116E3,7.27E2,6.52E2,2.104E3,1.138E3,6E0,2.294E3,7E0,4.2E1,2.33E2,1.903E3,9.48E2,6.47E2,1.315E3,1.225E3,1.49E2,7.4E1,5.7E1,2.759E3,3.389E3,2.3E1,8E0,1.135E3,9.9E1,1.17E2,9.65E2,2.65E2,4.51E2,1.7E1,7E0,8.1E1,1.8E1,1.1E2,8E1,8.97E2,8.15E2,3.68E2,1.8E2,1.7E2,7.2E1,7.1E1,7.2E1,9.52E2,2.57E2,1.59E2,2.4E1,7.24E2,2E0,3.2E1,1E0,2E0,6E0,2.9E2,9.7E2,1.4E1,2.619E3,4.987E3,3.148E3,3.006E3,1.072E3,2.687E3,1.2E1,9.056E3,1.3167E4,4.428E3,1.7973E4,9.95E2,4.991E3,4.93E2,6.23E2,5.08E2,2.19E2,5.16E2,1.36E2,1.328E3,7.76E2,1.132E3,6E0,5E0,1E0,1.524E3,7.7E2,3.9E1,3E0,1.45E2,8.8E1,1.884E3,1.9E1,5.29E2,4.19E2,3.6E1,6.11E2,3.27E2,9.88E2,1.124E3,1.01E2,1.22E2,2.7E1,6.7E1,7E0,4.7E1,1E1,5.3E1,2.706E3,1.18E2,3.271E3,1.3E1,1E1,5E0,3E0,7.74E2,3.61E2,4.4E1,5.5E1,8E1,3.7E1,5.03E2,4.62E2,1.53E2,1.12E2,3.71E2,8E1,3E0,1.4E1,5E0,2E0,7.7E1,4E0,1.5E1,3E0,2E1,9E1,8.31E2,6.6E1,8.05E2,1E1,1.43E2,2.25E2,1.18E2,6.2E1,6.4E1,1.06E2,6.3E1,9E0,3.3E1,3.9E1,2.29E2,7.23E2,1.91E2,6.6E1,1.35E2,2.4E1,6E0,1.8E1,1.42E2,5.82E2,1E0,1E0,1E0,3.1E1,1E0,1E0,5E0,1E0],"tree_param":{"num_deleted":"0","num_feature":"10","num_nodes":"235","size_leaf_vector":"1"}},{"base_weights":[4.2400212E-4,-2.3642423E0,3.1251192E1,4.659698E0,-7.4101973E0,3.5908115E1,-5.300676E0,3.656349E-1,6.2358017E0,-1.0240265E1,4.668107E0,1.67759E1,4.7414017E1,-5.769851E0,-8.6019075E-1,1.0855994E1,-2.7836444E0,9.425166E0,1.2162855E0,-7.8945036E0,-1.3548541E1,1.1600524E1,-6.489762E0,1.2137834E1,2.9348595E1,3.61319E1,6.703906E1,-6.170486E0,-1.7792728E0,7.3711977E0,-1.4198679E0,1.4657695E0,1.1654675E1,-4.9098024E0,6.65141E-1,1.0187742E1,1.6895131E0,3.5244093E0,4.2643145E-1,-9.833257E0,-3.1455066E0,-1.4504393E1,-1.2202792E1,6.6813207E0,1.793902E1,-7.7467127E0,-5.4746175E0,2.0855959E1,9.765347E0,4.1749413E1,2.620191E1,3.155689E1,4.4786858E1,6.0446255E1,7.9170784E1,-6.5877275E0,-4.316042E0,-9.411846E-2,-1.1350447E0,-3.6435707E0,1.59289E-1,-1.966498E0,8.36447E0,3.3672848E0,-9.927184E0,1.492298E1,9.220852E0,7.26736E-1,-5.7733474E0,1.5016309E0,-6.821292E0,5.758433E0,1.1175098E1,4.280345E0,-4.2863607E-1,4.307042E0,5.475572E-1,-1.3198285E-1,3.8283756E0,-1.0691115E1,-8.291323E0,-5.1466775E0,-1.0402253E0,-1.6270596E1,-1.4300662E1,-1.292553E1,-1.1062091E1,4.391934E0,9.827417E0,1.4077166E1,2.0251036E1,-8.318631E0,-6.9534345E0,-5.9234543E0,-4.041653E0,4.2183914E1,1.961009E1,8.666052E0,1.5202978E1,2.772717E1,4.8342E1,2.5325233E1,3.7787647E1,3.581617E1,2.6981693E1,8.0514455E-1,4.3817265E1,9.525564E-1,5.9151325E1,7.751287E1,1.6916364E2,-5.0488915E0,-6.908804E0,-6.501224E0,-2.3965538E0,9.95865E0,-2.5014877E0,1.6074743E-2,-7.07283E-2,-3.2117229E0,1.4794477E0,-6.4161725E-2,2.6353195E-1,1.0861832E-2,1.4163725E-1,-1.06409155E-1,-4.658582E-2,1.5688762E-1,5.8423832E-2,1.3762055E-1,8.43279E-2,3.205502E-2,-1.8712385E-2,-6.331807E-2,-2.5955478E-2,2.6976239E-2,-8.999759E-3,-7.879367E-2,-2.5813656E-2,6.6860296E-2,2.0848794E-2,1.2028487E-1,8.553832E-2,2.8307814E-2,5.405053E-2,-4.09133E-2,7.7188383E-3,4.1152246E-2,7.738976E-2,-2.136238E-3,7.00238E-2,6.3676503E-3,-1.8250778E-2,4.561225E-2,7.1887234E-3,-1.1491386E-1,-1.0249285E-1,-8.5106455E-2,-5.6241732E-2,-5.491487E-2,-3.5785675E-2,-4.5591085E-3,-2.5231663E-2,-1.6440997E-1,-1.4148466E-1,-1.4606297E-1,-1.3622652E-1,-1.3132054E-1,-1.1611308E-1,-1.15233734E-1,-9.63685E-2,5.9375085E-2,1.909841E-2,2.0979673E-1,9.502612E-2,1.6047594E-1,9.0171576E-2,2.8207758E-1,1.9012779E-1,-8.181011E-2,-1.0575475E-1,-6.528266E-2,-7.724505E-2,-5.522922E-2,-8.105177E-2,-6.8881765E-2,-3.700194E-2,3.1053233E-1,9.119646E-1,2.438844E-1,1.7390196E-1,6.056559E-2,9.5848955E-2,3.7909217E-2,1.6830537E-1,4.3390137E-1,9.9980064E-2,3.0989137E-1,6.536226E-1,2.678205E-1,1.2668867E-1,2.046827E-1,8.935217E-1,4.3491596E-1,3.3694607E-1,2.793624E-1,1.3190912E-1,4.5663393E-1,3.347987E-1,6.1385834E-1,4.7776735E-1,7.932113E-1,4.7624406E-1,1.8880327E-1,2.5555756E0,-5.8665924E-2,4.97292E-3,-7.553895E-2,-6.361665E-2,-7.360543E-2,3.7359435E-2,1.1018435E-2,-5.1683202E-2,5.601592E-3,1.6867477E-1,-1.8830098E-2,-1.0070948E-1,-9.215268E-2,-2.3588317E-2,9.5867425E-2,-2.1007821E-2],"categories":[],"categories_nodes":[],"categories_segments":[],"categories_sizes":[],"default_left":[0,0,0,0,0,0,0,0,0,0,0,0,0,0,0,0,0,0,0,0,0,0,0,0,0,0,0,0,0,0,0,0,0,0,0,0,0,0,0,0,0,0,0,0,0,0,0,0,0,0,0,0,0,0,0,0,0,0,0,0,0,0,0,0,0,0,0,0,0,0,0,0,0,0,0,0,0,0,0,0,0,0,0,0,0,0,0,0,0,0,0,0,0,0,0,0,0,0,0,0,0,0,0,0,0,0,0,0,0,0,0,0,0,0,0,0,0,0,0,0,0,0,0,0,0,0,0,0,0,0,0,0,0,0,0,0,0,0,0,0,0,0,0,0,0,0,0,0,0,0,0,0,0,0,0,0,0,0,0,0,0,0,0,0,0,0,0,0,0,0,0,0,0,0,0,0,0,0,0,0,0,0,0,0,0,0,0,0,0,0,0,0,0,0,0,0,0,0,0,0,0,0,0,0,0,0,0,0,0,0,0,0,0,0,0,0,0,0,0,0,0,0,0,0,0,0,0,0,0,0,0],"id":3,"left_children":[1,3,5,7,9,11,13,15,17,19,21,23,25,27,29,31,33,35,37,39,41,43,45,47,49,51,53,55,57,59,61,63,65,67,69,71,73,75,77,79,81,83,85,87,89,91,93,95,97,99,101,103,105,107,109,111,113,-1,115,117,-1,119,121,123,125,127,129,131,133,135,137,139,141,143,145,147,149,151,153,155,157,159,161,163,165,167,169,171,173,175,177,179,181,183,185,187,189,191,193,195,197,199,201,203,205,-1,207,-1,209,211,213,215,217,219,221,223,225,-1,-1,227,229,-1,-1,-1,-1,-1,-1,-1,-1,-1,-1,-1,-1,-1,-1,-1,-1,-1,-1,-1,-1,-1,-1,-1,-1,-1,-1,-1,-1,-1,-1,-1,-1,-1,-1,-1,-1,-1,-1,-1,-1,-1,-1,-1,-1,-1,-1,-1,-1,-1,-1,-1,-1,-1,-1,-1,-1,-1,-1,-1,-1,-1,-1,-1,-1,-1,-1,-1,-1,-1,-1,-1,-1,-1,-1,-1,-1,-1,-1,-1,-1,-1,-1,-1,-1,-1,-1,-1,-1,-1,-1,-1,-1,-1,-1,-1,-1,-1,-1,-1,-1,-1,-1,-1,-1,-1,-1,-1,-1,-1,-1],"loss_changes":[7.2705665E6,3.241817E6,1.178278E6,2.5879506E5,1.8195098E6,1.3506025E6,1.6263105E3,3.392549E5,4.4779412E5,3.34554E5,7.817072E5,1.3417194E5,8.4625E5,1.1209473E3,3.6059204E2,1.7764906E4,5.7916633E4,1.00879625E5,1.9813562E4,2.3231125E5,2.283575E4,1.9422719E5,4.8995E3,3.4689656E4,2.3138438E4,9.504375E4,1.070295E5,4.690879E2,3.138469E2,5.293437E2,4.0153452E2,4.0845725E3,1.7242938E4,2.3786328E4,1.887863E4,6.8023625E4,8.431047E3,6.4534688E3,1.538613E4,2.3613875E4,3.0821375E4,3.52925E3,5.987375E3,2.5245281E4,2.4027812E4,7.261406E2,1.3562891E3,8.738625E3,7.8064453E3,1.0122531E4,4.1011875E3,3.01545E4,2.557075E4,3.538425E4,5.98465E4,2.2352344E2,4.919458E2,0E0,9.647633E2,6.5390976E1,0E0,3.00829E2,1.2326263E3,3.9496885E3,5.1958252E1,6.382297E3,4.3752734E3,4.19185E3,7.5028594E3,7.7892485E3,1.3389668E3,9.66357E3,2.837375E4,1.1112627E3,3.723136E3,1.4124688E3,2.841376E3,9.057439E3,2.5991074E3,3.952E3,3.7018125E3,2.0085156E3,3.0896692E3,1.5578125E2,1.74525E3,1.0814375E3,1.789625E3,7.7916133E3,5.1544062E3,1.0055016E4,1.62226875E4,2.2375781E2,1.8889453E2,1.3813672E3,4.7507617E2,7.533371E3,3.203625E3,2.5962266E3,4.059586E3,1.1229217E4,2.2488562E4,8.2528125E3,2.7642273E4,1.19525E4,9.820375E3,0E0,1.412025E4,0E0,1.9434E4,2.227275E4,9.9043516E4,4.2921875E2,1.0371484E2,5.201306E2,6.456796E2,4.450794E2,2.4320282E2,0E0,0E0,2.3940167E2,5.716333E2,0E0,0E0,0E0,0E0,0E0,0E0,0E0,0E0,0E0,0E0,0E0,0E0,0E0,0E0,0E0,0E0,0E0,0E0,0E0,0E0,0E0,0E0,0E0,0E0,0E0,0E0,0E0,0E0,0E0,0E0,0E0,0E0,0E0,0E0,0E0,0E0,0E0,0E0,0E0,0E0,0E0,0E0,0E0,0E0,0E0,0E0,0E0,0E0,0E0,0E0,0E0,0E0,0E0,0E0,0E0,0E0,0E0,0E0,0E0,0E0,0E0,0E0,0E0,0E0,0E0,0E0,0E0,0E0,0E0,0E0,0E0,0E0,0E0,0E0,0E0,0E0,0E0,0E0,0E0,0E0,0E0,0E0,0E0,0E0,0E0,0E0,0E0,0E0,0E0,0E0,0E0,0E0,0E0,0E0,0E0,0E0,0E0,0E0,0E0,0E0,0E0,0E0,0E0,0E0,0E0,0E0,0E0,0E0,0E0,0E0],"parents":[2147483647,0,0,1,1,2,2,3,3,4,4,5,5,6,6,7,7,8,8,9,9,10,10,11,11,12,12,13,13,14,14,15,15,16,16,17,17,18,18,19,19,20,20,21,21,22,22,23,23,24,24,25,25,26,26,27,27,28,28,29,29,30,30,31,31,32,32,33,33,34,34,35,35,36,36,37,37,38,38,39,39,40,40,41,41,42,42,43,43,44,44,45,45,46,46,47,47,48,48,49,49,50,50,51,51,52,52,53,53,54,54,55,55,56,56,58,58,59,59,61,61,62,62,63,63,64,64,65,65,66,66,67,67,68,68,69,69,70,70,71,71,72,72,73,73,74,74,75,75,76,76,77,77,78,78,79,79,80,80,81,81,82,82,83,83,84,84,85,85,86,86,87,87,88,88,89,89,90,90,91,91,92,92,93,93,94,94,95,95,96,96,97,97,98,98,99,99,100,100,101,101,102,102,103,103,104,104,106,106,108,108,109,109,110,110,111,111,112,112,113,113,114,114,115,115,116,116,119,119,120,120],"right_children":[2,4,6,8,10,12,14,16,18,20,22,24,26,28,30,32,34,36,38,40,42,44,46,48,50,52,54,56,58,60,62,64,66,68,70,72,74,76,78,80,82,84,86,88,90,92,94,96,98,100,102,104,106,108,110,112,114,-1,116,118,-1,120,122,124,126,128,130,132,134,136,138,140,142,144,146,148,150,152,154,156,158,160,162,164,166,168,170,172,174,176,178,180,182,184,186,188,190,192,194,196,198,200,202,204,206,-1,208,-1,210,212,214,216,218,220,222,224,226,-1,-1,228,230,-1,-1,-1,-1,-1,-1,-1,-1,-1,-1,-1,-1,-1,-1,-1,-1,-1,-1,-1,-1,-1,-1,-1,-1,-1,-1,-1,-1,-1,-1,-1,-1,-1,-1,-1,-1,-1,-1,-1,-1,-1,-1,-1,-1,-1,-1,-1,-1,-1,-1,-1,-1,-1,-1,-1,-1,-1,-1,-1,-1,-1,-1,-1,-1,-1,-1,-1,-1,-1,-1,-1,-1,-1,-1,-1,-1,-1,-1,-1,-1,-1,-1,-1,-1,-1,-1,-1,-1,-1,-1,-1,-1,-1,-1,-1,-1,-1,-1,-1,-1,-1,-1,-1,-1,-1,-1,-1,-1,-1,-1],"split_conditions":[8.22038E2,1E0,2E0,6.079463E1,2.3590872E2,1E0,2.0641212E0,2.0678919E1,1.15331764E2,2E0,2E0,2.2520122E3,2.0081149E3,3.0718542E3,2.1035771E0,4.5690265E0,5.115423E1,1.549916E0,1.384692E2,1.15331764E2,9.750313E1,4.2387817E2,3.5182092E2,1.100036E0,1.0710995E0,1.3587661E3,4.0678772E3,1.5205915E0,1.0136981E0,1.1758771E3,5.870901E3,1.6421871E0,1.0702163E1,2.688931E1,1.6314162E0,6.89743E1,1.7139761E0,1.427046E0,5.467409E2,7.5053215E1,1.5777042E2,2.2302803E1,1.5345256E2,3.2176666E2,5.263349E2,2.9467047E2,6.1600195E2,1.0017282E0,1.7902778E3,3.0718542E3,2.47745E0,1.201211E0,1.002622E0,1.0065805E0,2.5755894E0,1.0535693E0,1.0947288E3,-9.411846E-2,1.0334231E0,9.6663855E2,1.59289E-1,3.3160584E0,2.4046407E0,1.427046E0,2.4046407E0,2.1401134E0,1.0399959E0,2.388555E1,4.84561E1,1.2328315E0,5.868816E1,1.2838285E0,1.2589154E0,7.914808E1,7.097151E1,1.3804718E0,1.3530801E2,1.4491339E0,2.03207E0,4.0568687E1,2.03207E0,1.471723E2,1.4381586E0,2.47745E0,1.3147092E0,1.4992394E0,2.0815187E2,1.3217645E0,1.0065805E0,1.4491339E0,1.0479274E0,2.1035771E0,1.4553156E0,1.9038174E0,1.0360278E0,2.0081149E3,1.0307236E0,9.6663855E2,1.1731921E0,1.0307236E0,1.0372732E0,1.9038174E0,5.870901E3,1.0269039E0,2.4046407E0,8.0514455E-1,1.5926497E0,9.525564E-1,1.602439E0,1.947799E0,5.870901E3,1.0492685E0,1.2036833E0,1.947799E0,1.4705863E3,1.0197015E0,1.6744168E0,1.6074743E-2,-7.07283E-2,8.664691E2,9.6663855E2,-6.4161725E-2,2.6353195E-1,1.0861832E-2,1.4163725E-1,-1.06409155E-1,-4.658582E-2,1.5688762E-1,5.8423832E-2,1.3762055E-1,8.43279E-2,3.205502E-2,-1.8712385E-2,-6.331807E-2,-2.5955478E-2,2.6976239E-2,-8.999759E-3,-7.879367E-2,-2.5813656E-2,6.6860296E-2,2.0848794E-2,1.2028487E-1,8.553832E-2,2.8307814E-2,5.405053E-2,-4.09133E-2,7.7188383E-3,4.1152246E-2,7.738976E-2,-2.136238E-3,7.00238E-2,6.3676503E-3,-1.8250778E-2,4.561225E-2,7.1887234E-3,-1.1491386E-1,-1.0249285E-1,-8.5106455E-2,-5.6241732E-2,-5.491487E-2,-3.5785675E-2,-4.5591085E-3,-2.5231663E-2,-1.6440997E-1,-1.4148466E-1,-1.4606297E-1,-1.3622652E-1,-1.3132054E-1,-1.1611308E-1,-1.15233734E-1,-9.63685E-2,5.9375085E-2,1.909841E-2,2.0979673E-1,9.502612E-2,1.6047594E-1,9.0171576E-2,2.8207758E-1,1.9012779E-1,-8.181011E-2,-1.0575475E-1,-6.528266E-2,-7.724505E-2,-5.522922E-2,-8.105177E-2,-6.8881765E-2,-3.700194E-2,3.1053233E-1,9.119646E-1,2.438844E-1,1.7390196E-1,6.056559E-2,9.5848955E-2,3.7909217E-2,1.6830537E-1,4.3390137E-1,9.9980064E-2,3.0989137E-1,6.536226E-1,2.678205E-1,1.2668867E-1,2.046827E-1,8.935217E-1,4.3491596E-1,3.3694607E-1,2.793624E-1,1.3190912E-1,4.5663393E-1,3.347987E-1,6.1385834E-1,4.7776735E-1,7.932113E-1,4.7624406E-1,1.8880327E-1,2.5555756E0,-5.8665924E-2,4.97292E-3,-7.553895E-2,-6.361665E-2,-7.360543E-2,3.7359435E-2,1.1018435E-2,-5.1683202E-2,5.601592E-3,1.6867477E-1,-1.8830098E-2,-1.0070948E-1,-9.215268E-2,-2.3588317E-2,9.5867425E-2,-2.1007821E-2],"split_indices":[0,9,9,0,0,9,7,0,0,9,9,0,0,0,7,0,0,7,0,0,0,0,0,7,7,0,0,7,7,0,0,7,0,0,7,0,7,7,0,0,0,0,0,0,0,0,0,7,0,0,7,7,7,7,7,7,0,0,7,0,0,7,7,7,7,7,7,0,0,7,0,7,7,0,0,7,0,7,7,0,7,0,7,7,7,7,0,7,7,7,7,7,7,7,7,0,7,0,7,7,7,7,0,7,7,0,7,0,7,7,0,7,7,7,0,7,7,0,0,0,0,0,0,0,0,0,0,0,0,0,0,0,0,0,0,0,0,0,0,0,0,0,0,0,0,0,0,0,0,0,0,0,0,0,0,0,0,0,0,0,0,0,0,0,0,0,0,0,0,0,0,0,0,0,0,0,0,0,0,0,0,0,0,0,0,0,0,0,0,0,0,0,0,0,0,0,0,0,0,0,0,0,0,0,0,0,0,0,0,0,0,0,0,0,0,0,0,0,0,0,0,0,0,0,0,0,0,0,0,0,0],"split_type":[0,0,0,0,0,0,0,0,0,0,0,0,0,0,0,0,0,0,0,0,0,0,0,0,0,0,0,0,0,0,0,0,0,0,0,0,0,0,0,0,0,0,0,0,0,0,0,0,0,0,0,0,0,0,0,0,0,0,0,0,0,0,0,0,0,0,0,0,0,0,0,0,0,0,0,0,0,0,0,0,0,0,0,0,0,0,0,0,0,0,0,0,0,0,0,0,0,0,0,0,0,0,0,0,0,0,0,0,0,0,0,0,0,0,0,0,0,0,0,0,0,0,0,0,0,0,0,0,0,0,0,0,0,0,0,0,0,0,0,0,0,0,0,0,0,0,0,0,0,0,0,0,0,0,0,0,0,0,0,0,0,0,0,0,0,0,0,0,0,0,0,0,0,0,0,0,0,0,0,0,0,0,0,0,0,0,0,0,0,0,0,0,0,0,0,0,0,0,0,0,0,0,0,0,0,0,0,0,0,0,0,0,0,0,0,0,0,0,0,0,0,0,0,0,0,0,0,0,0,0,0],"sum_hessian":[9.8385E4,9.1465E4,6.92E3,3.8238E4,5.3227E4,6.138E3,7.82E2,1.0267E4,2.7971E4,4.3123E4,1.0104E4,2.306E3,3.832E3,7.07E2,7.5E1,2.37E3,7.897E3,1.7103E4,1.0868E4,2.5234E4,1.7889E4,6.232E3,3.872E3,1.686E3,6.2E2,2.435E3,1.397E3,6.42E2,6.5E1,4E0,7.1E1,1.86E2,2.184E3,4.885E3,3.012E3,1.5568E4,1.535E3,2.77E3,8.098E3,1.7918E4,7.316E3,1.0454E4,7.435E3,3.51E3,2.722E3,1.727E3,2.145E3,3.59E2,1.327E3,1.23E2,4.97E2,1.596E3,8.39E2,9.09E2,4.88E2,5.22E2,1.2E2,4E0,6.1E1,2E0,2E0,6.8E1,3E0,1.6E2,2.6E1,9.3E2,1.254E3,6.49E2,4.236E3,2.71E3,3.02E2,2.839E3,1.2729E4,6.9E2,8.45E2,2.193E3,5.77E2,6.957E3,1.141E3,1.1509E4,6.409E3,3.75E3,3.566E3,1.073E3,9.381E3,4.545E3,2.89E3,2.033E3,1.477E3,1.022E3,1.7E3,9.98E2,7.29E2,1.631E3,5.14E2,1.8E1,3.41E2,1.106E3,2.21E2,4.1E1,8.2E1,4.65E2,3.2E1,8.23E2,7.73E2,2E1,8.19E2,3E1,8.79E2,4.81E2,7E0,9.3E1,4.29E2,5.5E1,6.5E1,6E0,5.5E1,1E0,1E0,5E1,1.8E1,2E0,1E0,1.33E2,2.7E1,2.2E1,4E0,8.57E2,7.3E1,1.83E2,1.071E3,3.32E2,3.17E2,3.602E3,6.34E2,1.809E3,9.01E2,2.41E2,6.1E1,2.266E3,5.73E2,9.6E3,3.129E3,3.03E2,3.87E2,2.08E2,6.37E2,2.079E3,1.14E2,5.17E2,6E1,4.785E3,2.172E3,9.23E2,2.18E2,4.085E3,7.424E3,5.92E3,4.89E2,3.072E3,6.78E2,2.559E3,1.007E3,9.87E2,8.6E1,6.452E3,2.929E3,3.92E3,6.25E2,2.178E3,7.12E2,1.252E3,7.81E2,4E1,1.437E3,7.34E2,2.88E2,2.26E2,1.474E3,9.45E2,5.3E1,4.76E2,2.53E2,1.381E3,2.5E2,5.3E1,4.61E2,1.6E1,2E0,1.05E2,2.36E2,2.9E2,8.16E2,2.8E1,1.93E2,2.1E1,2E1,4.2E1,4E1,4.16E2,4.9E1,2.5E1,7E0,1.74E2,6.49E2,7.22E2,5.1E1,6.92E2,1.27E2,7.31E2,1.48E2,4.52E2,2.9E1,3E0,4E0,8.1E1,1.2E1,1.91E2,2.38E2,5.1E1,4E0,2.9E1,3.6E1,3E0,3E0,5.2E1,3E0,5E0,4.5E1,5E0,1.3E1],"tree_param":{"num_deleted":"0","num_feature":"10","num_nodes":"231","size_leaf_vector":"1"}},{"base_weights":[5.5837014E-4,-2.2414691E0,2.963978E1,3.766722E0,-4.878116E0,2.0322683E1,4.1300766E1,5.7119613E0,9.581736E-1,-6.2114897E0,5.0074234E0,3.084452E1,1.4326429E1,5.0982395E1,2.6681456E1,6.55798E-1,6.887386E0,-1.1130258E0,7.9683857E0,-3.3242624E0,-8.537918E0,2.03136E0,9.937515E0,7.578321E1,2.862841E1,1.8810745E1,1.0037786E1,4.6614704E1,6.6418434E1,2.0957891E1,3.9866356E1,9.005047E-1,-5.9025154E0,7.9121733E0,3.6350696E0,1.2254237E0,-1.621975E0,1.6382515E1,4.6569667E0,6.313274E-1,-3.6310446E0,-9.905576E0,-5.3284364E0,7.3652774E-1,3.6174567E0,4.4364426E1,9.702537E0,7.7867085E-1,2.4537271E1,3.617083E1,2.6285856E1,1.5427737E1,2.4204725E1,9.484727E0,1.6010038E1,7.3160706E1,4.4794823E1,1.07911736E2,6.1191574E1,2.7253077E1,1.566712E1,5.6115417E1,2.467361E1,4.8238945E0,3.566953E-1,-9.056434E0,-3.1171668E0,-2.5151243E0,8.006586E0,4.26569E0,-3.0222015E0,2.3154972E0,-2.4897296E0,-2.182361E0,4.600978E-1,3.1848686E1,1.4337957E1,2.3695345E0,5.9144173E0,3.7929924E0,-1.0167964E0,-6.680283E0,-2.8513746E0,-8.863452E0,-1.1344816E1,-6.1517763E0,-3.0041296E0,1.5456597E1,6.50727E-1,4.6075535E0,8.878499E-1,2.4405802E1,6.382892E-1,1.1813068E1,7.0962768E0,3.676471E-1,-6.07253E-2,3.8947998E1,2.4532103E1,2.2393023E1,2.9773016E1,2.2992579E1,1.4973421E1,2.7173687E1,2.0634268E1,8.552644E0,1.3163929E1,2.1362442E1,1.0143887E1,6.1369164E1,7.9763E1,4.7568077E1,3.4599545E1,1.1582391E2,2.3031973E1,3.0989346E-1,6.2589977E1,1.9777697E1,3.5098442E1,1.2144872E1,1.8319466E1,7.1480545E1,4.3966106E1,3.267697E1,1.245485E1,6.7541204E-2,3.161764E-2,-1.9918181E-2,7.1492633E-3,-1.394064E-1,-2.2919726E-2,2.9606037E-2,-9.496216E-2,-9.2689514E-2,-9.713062E-3,1.5079112E-1,7.903981E-2,4.9998183E-2,2.7710048E-2,-5.789136E-2,-9.754905E-3,1.0540685E-2,2.8833868E-2,-2.9929016E-2,1.0087698E-1,-3.223189E-2,-1.5708646E-2,1.313524E-3,7.241516E-2,2.807189E-1,5.736747E-1,1.10134855E-1,2.0982084E-1,1.0316127E-1,2.0559084E-2,9.9261835E-2,4.3149374E-2,3.3171702E-2,1.9443002E-1,-3.4223692E-3,-7.107797E-2,-3.0276146E-2,-6.8846196E-2,-2.5219314E-2,-3.6430422E-2,-3.5884976E-2,-9.1556415E-2,-1.1646551E-1,-3.185409E-2,-6.434791E-2,-1.27918E-2,-3.0389821E-2,4.0774143E-1,4.9085528E-1,6.5071054E-2,1.975475E-3,2.1506557E-2,3.8210236E-2,6.3281156E-2,-7.169769E-3,2.2388672E-2,3.403231E-1,1.6541822E-1,8.183743E-2,1.3442871E-1,8.1533E-2,3.5858367E-2,3.216024E-1,4.3609327E-1,4.214629E-1,1.2611927E-1,1.0181626E-1,2.3260118E-1,3.6651483E-1,2.692208E-1,2.68766E-1,4.0969126E-2,1.4230427E-1,2.1256341E-1,2.9428178E-1,1.3940229E-1,1.7186989E-1,3.0224875E-1,1.08647026E-1,7.323242E-2,1.22531824E-1,2.876396E-1,2.363864E-1,8.983303E-2,7.485306E-2,2.6165423E-1,4.1053376E-1,6.643304E-1,8.395226E-1,5.7755476E-1,4.3604177E-1,5.5564207E-1,5.716318E-1,2.6714283E-1,3.9866778E-1,1.2553588E0,2.5305735E-2,3.5856047E-1,7.491472E-1,5.9785515E-1,2.719901E-1,1.7351887E-1,3.6240354E-1,1.8235911E-1,1.6901943E-1,9.7472735E-2,2.10345E-1,1.0749515E-1,5.98042E-1,9.629438E-1,1.9249262E-1,5.3058296E-1,2.136369E-1,3.7301674E-1,1.3116643E-1,-3.0674748E-2],"categories":[],"categories_nodes":[],"categories_segments":[],"categories_sizes":[],"default_left":[0,0,0,0,0,0,0,0,0,0,0,0,0,0,0,0,0,0,0,0,0,0,0,0,0,0,0,0,0,0,0,0,0,0,0,0,0,0,0,0,0,0,0,0,0,0,0,0,0,0,0,0,0,0,0,0,0,0,0,0,0,0,0,0,0,0,0,0,0,0,0,0,0,0,0,0,0,0,0,0,0,0,0,0,0,0,0,0,0,0,0,0,0,0,0,0,0,0,0,0,0,0,0,0,0,0,0,0,0,0,0,0,0,0,0,0,0,0,0,0,0,0,0,0,0,0,0,0,0,0,0,0,0,0,0,0,0,0,0,0,0,0,0,0,0,0,0,0,0,0,0,0,0,0,0,0,0,0,0,0,0,0,0,0,0,0,0,0,0,0,0,0,0,0,0,0,0,0,0,0,0,0,0,0,0,0,0,0,0,0,0,0,0,0,0,0,0,0,0,0,0,0,0,0,0,0,0,0,0,0,0,0,0,0,0,0,0,0,0,0,0,0,0,0,0,0,0,0,0,0,0,0,0,0,0,0,0,0,0,0,0],"id":4,"left_children":[1,3,5,7,9,11,13,15,17,19,21,23,25,27,29,31,33,35,37,39,41,43,45,47,49,51,53,55,57,59,61,63,65,67,69,71,73,75,77,79,81,83,85,87,89,91,93,-1,95,97,99,101,103,105,107,109,111,113,115,117,119,121,123,125,127,129,131,133,135,137,139,141,143,145,147,149,151,153,155,157,159,161,163,165,167,169,171,173,175,177,179,181,-1,183,185,-1,-1,187,189,191,193,195,197,199,201,203,205,207,209,211,213,215,217,219,221,-1,223,225,227,229,231,233,235,237,239,-1,-1,-1,-1,-1,-1,-1,-1,-1,-1,-1,-1,-1,-1,-1,-1,-1,-1,-1,-1,-1,-1,-1,-1,-1,-1,-1,-1,-1,-1,-1,-1,-1,-1,-1,-1,-1,-1,-1,-1,-1,-1,-1,-1,-1,-1,-1,-1,-1,-1,-1,-1,-1,-1,-1,-1,-1,-1,-1,-1,-1,-1,-1,-1,-1,-1,-1,-1,-1,-1,-1,-1,-1,-1,-1,-1,-1,-1,-1,-1,-1,-1,-1,-1,-1,-1,-1,-1,-1,-1,-1,-1,-1,-1,-1,-1,-1,-1,-1,-1,-1,-1,-1,-1,-1,-1,-1,-1,-1,-1,-1,-1,-1,-1,-1,-1],"loss_changes":[6.5380075E6,1.4490065E6,7.50886E5,1.5240969E5,8.379679E5,2.4233462E5,4.33447E5,9.795025E4,1.6577855E5,3.76227E5,1.1084347E5,1.3685675E5,4.6986312E4,1.214285E5,9.168419E4,4.9964395E3,4.45425E4,1.0491986E4,7.24782E4,3.0336281E4,1.3610875E5,9.6765625E3,2.2576312E4,5.03075E3,2.258375E4,2.1487562E4,3.9967344E3,6.6435E4,8.1233125E4,2.8116594E4,8.99565E4,6.396875E3,9.5566284E2,1.00303125E4,1.3472348E4,6.3882344E3,8.447213E3,2.2785125E4,5.3647305E3,9.383324E3,5.5131875E4,3.25215E4,1.7723406E4,3.2686724E3,5.719959E3,5.82341E3,1.5460844E4,0E0,1.7203735E3,9.1615E3,1.317975E4,2.1955312E3,4.3155312E3,3.8379844E3,3.0800938E3,2.1895312E3,3.660925E4,2.6882031E4,1.3349375E4,2.2178188E4,4.149672E3,3.00855E4,1.8466703E4,1.1496699E3,2.218277E3,1.6860776E3,2.3931086E3,9.502517E2,7.1934375E3,3.2001133E3,1.568699E3,8.701948E2,2.2958328E3,3.6253203E3,3.423346E3,6.581828E3,1.4148344E4,1.6361426E3,7.695758E3,4.5300684E3,4.8623174E3,3.5042656E3,4.8095156E3,1.9418188E4,2.244325E4,9.431078E3,3.826996E3,4.195023E3,1.7546559E3,2.0788047E3,1.2266094E3,2.6977295E2,0E0,9.117516E3,4.672117E3,0E0,0E0,6.5391562E3,1.2696191E4,4.909172E3,9.504625E3,2.8255352E3,2.9652344E3,6.9887812E3,6.522617E3,2.5411719E3,2.9295234E3,1.3092266E3,2.0190596E3,1.0791406E3,2.2203125E2,3.120625E4,5.060353E4,2.4503062E4,1.223821E3,0E0,7.445875E3,3.164586E3,2.9784219E3,2.1619824E3,5.2203516E3,1.6550781E4,2.1901156E4,5.272289E3,8.414951E2,0E0,0E0,0E0,0E0,0E0,0E0,0E0,0E0,0E0,0E0,0E0,0E0,0E0,0E0,0E0,0E0,0E0,0E0,0E0,0E0,0E0,0E0,0E0,0E0,0E0,0E0,0E0,0E0,0E0,0E0,0E0,0E0,0E0,0E0,0E0,0E0,0E0,0E0,0E0,0E0,0E0,0E0,0E0,0E0,0E0,0E0,0E0,0E0,0E0,0E0,0E0,0E0,0E0,0E0,0E0,0E0,0E0,0E0,0E0,0E0,0E0,0E0,0E0,0E0,0E0,0E0,0E0,0E0,0E0,0E0,0E0,0E0,0E0,0E0,0E0,0E0,0E0,0E0,0E0,0E0,0E0,0E0,0E0,0E0,0E0,0E0,0E0,0E0,0E0,0E0,0E0,0E0,0E0,0E0,0E0,0E0,0E0,0E0,0E0,0E0,0E0,0E0,0E0,0E0,0E0,0E0,0E0,0E0,0E0,0E0,0E0,0E0,0E0,0E0,0E0,0E0],"parents":[2147483647,0,0,1,1,2,2,3,3,4,4,5,5,6,6,7,7,8,8,9,9,10,10,11,11,12,12,13,13,14,14,15,15,16,16,17,17,18,18,19,19,20,20,21,21,22,22,23,23,24,24,25,25,26,26,27,27,28,28,29,29,30,30,31,31,32,32,33,33,34,34,35,35,36,36,37,37,38,38,39,39,40,40,41,41,42,42,43,43,44,44,45,45,46,46,48,48,49,49,50,50,51,51,52,52,53,53,54,54,55,55,56,56,57,57,58,58,59,59,60,60,61,61,62,62,63,63,64,64,65,65,66,66,67,67,68,68,69,69,70,70,71,71,72,72,73,73,74,74,75,75,76,76,77,77,78,78,79,79,80,80,81,81,82,82,83,83,84,84,85,85,86,86,87,87,88,88,89,89,90,90,91,91,93,93,94,94,97,97,98,98,99,99,100,100,101,101,102,102,103,103,104,104,105,105,106,106,107,107,108,108,109,109,110,110,111,111,112,112,113,113,114,114,116,116,117,117,118,118,119,119,120,120,121,121,122,122,123,123,124,124],"right_children":[2,4,6,8,10,12,14,16,18,20,22,24,26,28,30,32,34,36,38,40,42,44,46,48,50,52,54,56,58,60,62,64,66,68,70,72,74,76,78,80,82,84,86,88,90,92,94,-1,96,98,100,102,104,106,108,110,112,114,116,118,120,122,124,126,128,130,132,134,136,138,140,142,144,146,148,150,152,154,156,158,160,162,164,166,168,170,172,174,176,178,180,182,-1,184,186,-1,-1,188,190,192,194,196,198,200,202,204,206,208,210,212,214,216,218,220,222,-1,224,226,228,230,232,234,236,238,240,-1,-1,-1,-1,-1,-1,-1,-1,-1,-1,-1,-1,-1,-1,-1,-1,-1,-1,-1,-1,-1,-1,-1,-1,-1,-1,-1,-1,-1,-1,-1,-1,-1,-1,-1,-1,-1,-1,-1,-1,-1,-1,-1,-1,-1,-1,-1,-1,-1,-1,-1,-1,-1,-1,-1,-1,-1,-1,-1,-1,-1,-1,-1,-1,-1,-1,-1,-1,-1,-1,-1,-1,-1,-1,-1,-1,-1,-1,-1,-1,-1,-1,-1,-1,-1,-1,-1,-1,-1,-1,-1,-1,-1,-1,-1,-1,-1,-1,-1,-1,-1,-1,-1,-1,-1,-1,-1,-1,-1,-1,-1,-1,-1,-1,-1,-1],"split_conditions":[3.41424E1,1E0,4.8619423E1,1.2961292E1,1.8535805E1,1.23147E0,1.4169058E0,7.5881124E0,2.3783443E1,2E0,2.5188765E1,1.1071153E0,1.4385104E0,7.837086E1,7.837086E1,1.4466355E0,1.229396E0,1.3817181E1,1.214867E0,4.5310555E0,1.1686878E1,2.1408085E1,1.1071153E0,3E0,1.1420217E0,4.1190937E1,4E0,1.1284143E0,1.1401917E0,1.6884226E0,1.7328498E0,3.338848E0,4.3566065E0,1.125157E0,1.4102169E0,1.2623432E0,2.0296041E1,1.1289123E0,2.6774372E1,1.1604341E0,7.9795904E0,3E0,1.5602507E1,1.1071153E0,1.3979459E0,2.9916462E1,1.343475E0,7.7867085E-1,3.974349E1,2E0,3.974349E1,1.240622E0,1E0,4.4441425E1,1.6549286E0,5.4180695E1,2E0,2E0,1.1494327E0,5.7935883E1,5.7935883E1,1E0,2.2132306E0,1.1683767E0,1.1315091E0,1.5969986E0,1.5403259E0,8.886866E0,1.1284143E0,1.2888416E0,1.0725902E1,1.1539063E0,1.573629E0,1.1965778E0,1.5969986E0,1.1286327E0,2.9916462E1,1.2218723E0,1.2888416E0,1.1592023E0,1.4749826E0,4.819842E0,1.3161425E1,3.7762644E0,1.4385104E0,1.4385104E0,9E0,1.899641E1,3E0,2.3783443E1,2E0,2.6774372E1,6.382892E-1,2.735612E1,1.6242903E0,3.676471E-1,-6.07253E-2,1.1305444E0,1.1289123E0,1.1494327E0,1.1651089E0,2E0,3E0,1.4039811E0,4.6495613E1,1.5403259E0,2.2132306E0,6E0,2.2132306E0,1.1071153E0,6.904265E1,6.2713104E1,1.1744806E0,1.1071153E0,9.8321724E1,3.0989346E-1,1.1744806E0,1.4749826E0,4E0,5.1147144E1,2.2132306E0,1.6242903E0,1.5122291E0,1E0,8E0,6.7541204E-2,3.161764E-2,-1.9918181E-2,7.1492633E-3,-1.394064E-1,-2.2919726E-2,2.9606037E-2,-9.496216E-2,-9.2689514E-2,-9.713062E-3,1.5079112E-1,7.903981E-2,4.9998183E-2,2.7710048E-2,-5.789136E-2,-9.754905E-3,1.0540685E-2,2.8833868E-2,-2.9929016E-2,1.0087698E-1,-3.223189E-2,-1.5708646E-2,1.313524E-3,7.241516E-2,2.807189E-1,5.736747E-1,1.10134855E-1,2.0982084E-1,1.0316127E-1,2.0559084E-2,9.9261835E-2,4.3149374E-2,3.3171702E-2,1.9443002E-1,-3.4223692E-3,-7.107797E-2,-3.0276146E-2,-6.8846196E-2,-2.5219314E-2,-3.6430422E-2,-3.5884976E-2,-9.1556415E-2,-1.1646551E-1,-3.185409E-2,-6.434791E-2,-1.27918E-2,-3.0389821E-2,4.0774143E-1,4.9085528E-1,6.5071054E-2,1.975475E-3,2.1506557E-2,3.8210236E-2,6.3281156E-2,-7.169769E-3,2.2388672E-2,3.403231E-1,1.6541822E-1,8.183743E-2,1.3442871E-1,8.1533E-2,3.5858367E-2,3.216024E-1,4.3609327E-1,4.214629E-1,1.2611927E-1,1.0181626E-1,2.3260118E-1,3.6651483E-1,2.692208E-1,2.68766E-1,4.0969126E-2,1.4230427E-1,2.1256341E-1,2.9428178E-1,1.3940229E-1,1.7186989E-1,3.0224875E-1,1.08647026E-1,7.323242E-2,1.22531824E-1,2.876396E-1,2.363864E-1,8.983303E-2,7.485306E-2,2.6165423E-1,4.1053376E-1,6.643304E-1,8.395226E-1,5.7755476E-1,4.3604177E-1,5.5564207E-1,5.716318E-1,2.6714283E-1,3.9866778E-1,1.2553588E0,2.5305735E-2,3.5856047E-1,7.491472E-1,5.9785515E-1,2.719901E-1,1.7351887E-1,3.6240354E-1,1.8235911E-1,1.6901943E-1,9.7472735E-2,2.10345E-1,1.0749515E-1,5.98042E-1,9.629438E-1,1.9249262E-1,5.3058296E-1,2.136369E-1,3.7301674E-1,1.3116643E-1,-3.0674748E-2],"split_indices":[6,3,6,6,6,1,1,6,6,3,6,1,1,6,6,1,1,6,1,6,6,6,1,3,1,6,3,1,1,1,1,6,6,1,1,1,6,1,6,1,6,3,6,1,1,6,1,0,6,3,6,1,3,6,1,6,3,3,1,6,6,3,1,1,1,1,1,6,1,1,6,1,1,1,1,1,6,1,1,1,1,6,6,6,1,1,3,6,3,6,3,6,0,6,1,0,0,1,1,1,1,3,3,1,6,1,1,3,1,1,6,6,1,1,6,0,1,1,3,6,1,1,1,3,3,0,0,0,0,0,0,0,0,0,0,0,0,0,0,0,0,0,0,0,0,0,0,0,0,0,0,0,0,0,0,0,0,0,0,0,0,0,0,0,0,0,0,0,0,0,0,0,0,0,0,0,0,0,0,0,0,0,0,0,0,0,0,0,0,0,0,0,0,0,0,0,0,0,0,0,0,0,0,0,0,0,0,0,0,0,0,0,0,0,0,0,0,0,0,0,0,0,0,0,0,0,0,0,0,0,0,0,0,0,0,0,0,0,0,0,0],"split_type":[0,0,0,0,0,0,0,0,0,0,0,0,0,0,0,0,0,0,0,0,0,0,0,0,0,0,0,0,0,0,0,0,0,0,0,0,0,0,0,0,0,0,0,0,0,0,0,0,0,0,0,0,0,0,0,0,0,0,0,0,0,0,0,0,0,0,0,0,0,0,0,0,0,0,0,0,0,0,0,0,0,0,0,0,0,0,0,0,0,0,0,0,0,0,0,0,0,0,0,0,0,0,0,0,0,0,0,0,0,0,0,0,0,0,0,0,0,0,0,0,0,0,0,0,0,0,0,0,0,0,0,0,0,0,0,0,0,0,0,0,0,0,0,0,0,0,0,0,0,0,0,0,0,0,0,0,0,0,0,0,0,0,0,0,0,0,0,0,0,0,0,0,0,0,0,0,0,0,0,0,0,0,0,0,0,0,0,0,0,0,0,0,0,0,0,0,0,0,0,0,0,0,0,0,0,0,0,0,0,0,0,0,0,0,0,0,0,0,0,0,0,0,0,0,0,0,0,0,0,0,0,0,0,0,0,0,0,0,0,0,0],"sum_hessian":[9.8385E4,9.1467E4,6.918E3,2.7897E4,6.357E4,3.847E3,3.071E3,1.6481E4,1.1416E4,5.6015E4,7.555E3,1.395E3,2.452E3,1.846E3,1.225E3,3.109E3,1.3372E4,8.813E3,2.603E3,2.4996E4,3.1019E4,4.712E3,2.843E3,6.4E1,1.331E3,1.197E3,1.255E3,1.442E3,4.04E2,8.56E2,3.69E2,2.998E3,1.11E2,1.0167E4,3.205E3,1.575E3,7.238E3,7.34E2,1.869E3,1.799E3,2.3197E4,2.1749E4,9.27E3,2.595E3,2.117E3,1.8E1,2.825E3,6.1E1,3E0,3.12E2,1.019E3,7.38E2,4.59E2,1.151E3,1.04E2,9E1,1.352E3,4.3E1,3.61E2,3.89E2,4.67E2,1.77E2,1.92E2,3.64E2,2.634E3,5.1E1,6E1,9.1E1,1.0076E4,2.928E3,2.77E2,1.218E3,3.57E2,5.703E3,1.535E3,8.4E1,6.5E2,6.64E2,1.205E3,6.16E2,1.183E3,4.722E3,1.8475E4,1.2619E4,9.13E3,6.844E3,2.426E3,1.4E1,2.581E3,1.553E3,5.64E2,1E1,8E0,1.559E3,1.266E3,2E0,1E0,2.5E2,6.2E1,4.85E2,5.34E2,3.9E1,6.99E2,2.47E2,2.12E2,9.21E2,2.3E2,5.3E1,5.1E1,3.6E1,5.4E1,1.06E3,2.92E2,3.9E1,4E0,1.7E1,3.44E2,2.01E2,1.88E2,2.03E2,2.64E2,7.6E1,1.01E2,1.15E2,7.7E1,1.67E2,1.97E2,3.48E2,2.286E3,2.9E1,2.2E1,3.1E1,2.9E1,1.6E1,7.5E1,1.42E2,9.934E3,1.962E3,9.66E2,1.17E2,1.6E2,3.79E2,8.39E2,3.44E2,1.3E1,2.109E3,3.594E3,1.465E3,7E1,7.5E1,9E0,4.35E2,2.15E2,2.4E1,6.4E2,3.42E2,8.63E2,5.99E2,1.7E1,1.066E3,1.17E2,2.51E2,4.471E3,1.3049E4,5.426E3,6.63E2,1.1956E4,8.804E3,3.26E2,6.468E3,3.76E2,2.425E3,1E0,2E0,1.2E1,1.983E3,5.98E2,1.068E3,4.85E2,2.58E2,3.06E2,3E0,7E0,4.85E2,1.074E3,9.72E2,2.94E2,1.05E2,1.45E2,2.4E1,3.8E1,3.3E1,4.52E2,1.53E2,3.81E2,3.2E1,7E0,6.28E2,7.1E1,2.1E2,3.7E1,1.58E2,5.4E1,3.17E2,6.04E2,2.19E2,1.1E1,4.4E1,9E0,4.5E1,6E0,9E0,2.7E1,4.3E1,1.1E1,7.13E2,3.47E2,7.4E1,2.18E2,5E0,3.4E1,2E0,2E0,5.9E1,2.85E2,4.7E1,1.54E2,1.75E2,1.3E1,6.6E1,1.37E2,1.93E2,7.1E1,5.4E1,2.2E1,2.8E1,7.3E1,3.5E1,8E1,7.4E1,3E0],"tree_param":{"num_deleted":"0","num_feature":"10","num_nodes":"241","size_leaf_vector":"1"}},{"base_weights":[7.8148866E-4,3.54384E0,-1.1918851E1,2.7250854E1,1.0025027E0,-9.080036E0,-1.32273655E1,1.1161496E1,4.0016647E1,3.7512238E0,-8.251192E0,-7.0994945E0,-9.909476E0,-1.1948195E1,-1.3927759E1,1.8206606E1,9.772739E0,4.131371E1,2.9705282E1,7.5733323E0,-1.0454193E0,-4.2561693E0,-1.1564585E1,-7.6272187E0,-5.658981E0,-9.288552E0,-1.0460532E1,-1.230623E1,-1.1217605E1,-1.3425293E1,-1.4597118E1,3.7092957E-1,1.7008821E1,1.012035E1,2.833513E0,6.256203E-1,4.082393E1,9.346268E-2,3.0228582E1,8.722065E0,3.2134306E0,5.315259E0,-5.0503654E0,1.1324594E-1,-9.439345E0,-1.0020915E1,-1.2910157E1,-9.116323E0,-7.504914E0,-5.914329E0,-3.8464913E0,-9.456255E0,-8.448214E0,-1.1468387E1,-9.934175E0,-1.1964389E-1,-1.2675755E-1,-1.06840515E1,-1.1773679E1,-1.4012848E1,-1.2626187E1,-1.4850077E-1,-1.4175566E1,1.3512374E1,2.0479294E1,1.1675136E1,9.157091E0,9.764723E-3,4.539647E-2,4.1507164E1,3.7718185E1,3.1475605E1,2.1452068E-1,5.7986774E0,9.779067E0,4.5704336E0,1.5717465E0,1.2323169E1,2.4069726E0,-2.9825761E0,-6.8835154E0,1.4341671E0,-3.9245627E0,-8.720666E0,-1.0335263E1,-8.56821E0,-1.1356358E1,-1.1820582E1,-1.3308251E1,-7.385734E0,-1.0127502E-1,-5.9256315E0,-7.760706E0,-5.5326395E0,-7.0641856E0,-1.5308156E-2,-4.8153944E0,-9.340005E0,-1.031757E1,-8.343198E0,-1.211857E-1,-1.2242751E-1,-1.1217182E1,-5.0369926E-2,-9.965142E0,-1.060205E1,-1.5315434E-1,-1.2304233E1,-1.0687048E1,-1.4204103E-1,-1.3617517E-1,-1.2877856E1,-1.176613E1,-1.3866459E-1,-1.481927E-1,-5.8832824E-2,1.4085867E-1,2.5505286E-1,1.8022558E-1,1.1244763E-2,1.214336E-1,6.958975E-2,1.0574636E-1,4.026336E-1,4.2991957E-1,3.0335602E-1,3.8387972E-1,2.8929025E-1,7.9812354E-1,8.389337E-2,5.163019E-2,1.0296605E-1,6.9128424E-2,5.0683778E-2,-4.189394E-4,4.2922787E-2,9.412855E-3,2.0139581E-1,1.1480325E-1,3.8543183E-2,1.1554473E-2,-1.7171524E-2,-4.2311184E-2,-5.5877928E-2,-7.712088E-2,2.982526E-2,-7.967756E-3,-1.8418707E-2,-6.580821E-2,-7.8807764E-2,-9.370933E-2,-1.1443835E-1,-1.0186135E-1,-7.2642095E-2,-1.0288587E-1,-1.1081141E-1,-1.1715456E-1,-1.1999619E-1,-1.0786435E-1,-1.2971675E-1,-1.3936874E-1,-7.941661E-2,-3.2333203E-2,-6.415097E-2,4.162561E-2,-8.83055E-2,-7.301176E-2,-6.0379785E-2,-3.7787724E-2,-7.1906865E-2,-4.394334E-2,-6.923497E-2,-2.5220847E-2,-9.535508E-2,-8.3453484E-2,-1.2177457E-1,-1.001184E-1,-8.6167976E-2,-7.348442E-2,-6.0825568E-2,-1.1345094E-1,-8.291024E-2,-1.0007861E-1,-1.0665503E-1,-6.058393E-2,-1.0227876E-1,-1.2782699E-1,-7.6552175E-2,-1.07996665E-1,-1.2380376E-1,-1.3194966E-1,-1.1061496E-1,-1.2247416E-1],"categories":[],"categories_nodes":[],"categories_segments":[],"categories_sizes":[],"default_left":[0,0,0,0,0,0,0,0,0,0,0,0,0,0,0,0,0,0,0,0,0,0,0,0,0,0,0,0,0,0,0,0,0,0,0,0,0,0,0,0,0,0,0,0,0,0,0,0,0,0,0,0,0,0,0,0,0,0,0,0,0,0,0,0,0,0,0,0,0,0,0,0,0,0,0,0,0,0,0,0,0,0,0,0,0,0,0,0,0,0,0,0,0,0,0,0,0,0,0,0,0,0,0,0,0,0,0,0,0,0,0,0,0,0,0,0,0,0,0,0,0,0,0,0,0,0,0,0,0,0,0,0,0,0,0,0,0,0,0,0,0,0,0,0,0,0,0,0,0,0,0,0,0,0,0,0,0,0,0,0,0,0,0,0,0,0,0,0,0,0,0,0,0,0,0,0,0,0,0,0,0,0,0,0,0,0,0,0,0,0,0,0,0],"id":5,"left_children":[1,3,5,7,9,11,13,15,17,19,21,23,25,27,29,31,33,35,37,39,41,43,45,47,49,51,53,55,57,59,61,-1,63,65,67,-1,69,-1,71,73,75,77,79,81,83,85,87,89,91,93,95,97,99,101,103,-1,-1,105,107,109,111,-1,113,115,117,119,121,-1,-1,123,125,127,-1,129,131,133,135,137,139,141,143,145,147,149,151,153,155,157,159,161,-1,163,165,167,169,-1,171,173,175,177,-1,-1,179,-1,181,183,-1,185,187,-1,-1,189,191,-1,-1,-1,-1,-1,-1,-1,-1,-1,-1,-1,-1,-1,-1,-1,-1,-1,-1,-1,-1,-1,-1,-1,-1,-1,-1,-1,-1,-1,-1,-1,-1,-1,-1,-1,-1,-1,-1,-1,-1,-1,-1,-1,-1,-1,-1,-1,-1,-1,-1,-1,-1,-1,-1,-1,-1,-1,-1,-1,-1,-1,-1,-1,-1,-1,-1,-1,-1,-1,-1,-1,-1,-1,-1,-1,-1,-1,-1,-1,-1],"loss_changes":[4.1550755E6,4.5693255E6,8.36225E4,1.5077575E6,1.7424105E6,1.1619375E4,1.36565E4,3.1619875E4,5.35275E4,9.682623E5,2.0761412E5,1.5562891E3,1.618125E3,1.29175E3,3.15525E3,1.1449125E4,6.525125E3,3.52655E4,4.6289375E3,1.4718288E5,5.9668294E5,1.6111506E5,1.7682E4,2.115E2,2.401289E2,2.5354688E2,1.2908125E3,3.104375E2,4.109375E2,2.50125E3,2.43875E2,0E0,5.8389688E3,3.7675625E3,4.1062244E2,0E0,5.978E3,0E0,4.2388438E3,7.18265E4,1.3651285E4,1.8441847E5,5.4461312E4,2.0598764E4,2.0050312E3,7.6587812E3,1.828375E3,1.21194336E2,5.300703E2,1.7860352E2,1.5641602E2,1.0028125E2,5.4226562E1,3.8132812E1,2.1476562E2,0E0,0E0,1.9233594E2,3.7353125E2,5.4375E1,3.738125E2,0E0,1.1684375E2,2.9081836E3,2.6395625E3,4.85725E3,4.918125E3,0E0,0E0,3.632E3,2.0595E3,4.5820594E4,0E0,1.0133766E4,2.5270875E4,7.707875E3,4.7573247E3,1.7253406E4,1.1583008E4,1.0666773E4,8.1355938E3,1.0054389E4,5.254501E3,9.157656E2,1.21984375E2,4.230297E3,7.578125E1,9.903125E1,5.269375E2,7.820166E1,0E0,1.029081E3,5.3728125E2,3.1131738E2,8.930176E0,0E0,2.2909949E2,2.5896875E2,5.453125E0,4.41875E1,0E0,0E0,3.8614062E2,0E0,4.109375E1,2.0092188E2,0E0,4.4746094E2,1.8050781E1,0E0,0E0,1.3115625E2,5.478125E1,0E0,0E0,0E0,0E0,0E0,0E0,0E0,0E0,0E0,0E0,0E0,0E0,0E0,0E0,0E0,0E0,0E0,0E0,0E0,0E0,0E0,0E0,0E0,0E0,0E0,0E0,0E0,0E0,0E0,0E0,0E0,0E0,0E0,0E0,0E0,0E0,0E0,0E0,0E0,0E0,0E0,0E0,0E0,0E0,0E0,0E0,0E0,0E0,0E0,0E0,0E0,0E0,0E0,0E0,0E0,0E0,0E0,0E0,0E0,0E0,0E0,0E0,0E0,0E0,0E0,0E0,0E0,0E0,0E0,0E0,0E0,0E0,0E0,0E0,0E0,0E0,0E0,0E0,0E0,0E0],"parents":[2147483647,0,0,1,1,2,2,3,3,4,4,5,5,6,6,7,7,8,8,9,9,10,10,11,11,12,12,13,13,14,14,15,15,16,16,17,17,18,18,19,19,20,20,21,21,22,22,23,23,24,24,25,25,26,26,27,27,28,28,29,29,30,30,32,32,33,33,34,34,36,36,38,38,39,39,40,40,41,41,42,42,43,43,44,44,45,45,46,46,47,47,48,48,49,49,50,50,51,51,52,52,53,53,54,54,57,57,58,58,59,59,60,60,62,62,63,63,64,64,65,65,66,66,69,69,70,70,71,71,73,73,74,74,75,75,76,76,77,77,78,78,79,79,80,80,81,81,82,82,83,83,84,84,85,85,86,86,87,87,88,88,89,89,91,91,92,92,93,93,94,94,96,96,97,97,98,98,99,99,102,102,104,104,105,105,107,107,108,108,111,111,112,112],"right_children":[2,4,6,8,10,12,14,16,18,20,22,24,26,28,30,32,34,36,38,40,42,44,46,48,50,52,54,56,58,60,62,-1,64,66,68,-1,70,-1,72,74,76,78,80,82,84,86,88,90,92,94,96,98,100,102,104,-1,-1,106,108,110,112,-1,114,116,118,120,122,-1,-1,124,126,128,-1,130,132,134,136,138,140,142,144,146,148,150,152,154,156,158,160,162,-1,164,166,168,170,-1,172,174,176,178,-1,-1,180,-1,182,184,-1,186,188,-1,-1,190,192,-1,-1,-1,-1,-1,-1,-1,-1,-1,-1,-1,-1,-1,-1,-1,-1,-1,-1,-1,-1,-1,-1,-1,-1,-1,-1,-1,-1,-1,-1,-1,-1,-1,-1,-1,-1,-1,-1,-1,-1,-1,-1,-1,-1,-1,-1,-1,-1,-1,-1,-1,-1,-1,-1,-1,-1,-1,-1,-1,-1,-1,-1,-1,-1,-1,-1,-1,-1,-1,-1,-1,-1,-1,-1,-1,-1,-1,-1,-1,-1],"split_conditions":[2E0,1E0,3E0,1E0,9E0,1E0,5E0,1.0710995E0,1.7906852E0,1E0,1.1E1,1.5059061E0,2E0,1.3217645E0,8E0,1.002622E0,3.3160584E0,1.0035795E0,1.807802E0,1.4436051E0,4E0,1E0,1.3E1,1.018458E0,2.6903427E0,1.6528354E0,1.1200407E0,4E0,4E0,1.2300165E0,1.2804996E0,3.7092957E-1,1.0346771E0,1.2708689E0,3.8661845E0,6.256203E-1,1.432298E0,9.346268E-2,3.0156608E0,4E0,1.7139761E0,2E0,6E0,1.3711232E0,1E1,1E0,1.4E1,1.0065805E0,1.0535693E0,2.03207E0,2.8336172E0,1.4491339E0,3.8661845E0,1.0208924E0,1.1219954E0,-1.1964389E-1,-1.2675755E-1,3.8661845E0,1.7001581E0,1.1237543E0,1.6872637E0,-1.4850077E-1,1.2E1,1.0035795E0,1.0439132E0,1.0774964E0,1.5205915E0,9.764723E-3,4.539647E-2,1.1608018E0,1.4553156E0,2.8336172E0,2.1452068E-1,1.0439132E0,8E0,8E0,2E0,1.0281798E0,3E0,5E0,7E0,1E1,1E1,1.1960953E0,1.0346771E0,1.2E1,1.2E1,1.7001581E0,1.7E1,1.0056107E0,-1.0127502E-1,1.0521126E0,1.1292521E0,1.8445071E0,2.5755894E0,-1.5308156E-2,3.3160584E0,1.3075016E0,1.4675325E0,2.4046407E0,-1.211857E-1,-1.2242751E-1,1.0231955E0,-5.0369926E-2,1.1311132E0,3.0156608E0,-1.5315434E-1,1.3620363E0,1.7139761E0,-1.4204103E-1,-1.3617517E-1,6E0,6E0,-1.3866459E-1,-1.481927E-1,-5.8832824E-2,1.4085867E-1,2.5505286E-1,1.8022558E-1,1.1244763E-2,1.214336E-1,6.958975E-2,1.0574636E-1,4.026336E-1,4.2991957E-1,3.0335602E-1,3.8387972E-1,2.8929025E-1,7.9812354E-1,8.389337E-2,5.163019E-2,1.0296605E-1,6.9128424E-2,5.0683778E-2,-4.189394E-4,4.2922787E-2,9.412855E-3,2.0139581E-1,1.1480325E-1,3.8543183E-2,1.1554473E-2,-1.7171524E-2,-4.2311184E-2,-5.5877928E-2,-7.712088E-2,2.982526E-2,-7.967756E-3,-1.8418707E-2,-6.580821E-2,-7.8807764E-2,-9.370933E-2,-1.1443835E-1,-1.0186135E-1,-7.2642095E-2,-1.0288587E-1,-1.1081141E-1,-1.1715456E-1,-1.1999619E-1,-1.0786435E-1,-1.2971675E-1,-1.3936874E-1,-7.941661E-2,-3.2333203E-2,-6.415097E-2,4.162561E-2,-8.83055E-2,-7.301176E-2,-6.0379785E-2,-3.7787724E-2,-7.1906865E-2,-4.394334E-2,-6.923497E-2,-2.5220847E-2,-9.535508E-2,-8.3453484E-2,-1.2177457E-1,-1.001184E-1,-8.6167976E-2,-7.348442E-2,-6.0825568E-2,-1.1345094E-1,-8.291024E-2,-1.0007861E-1,-1.0665503E-1,-6.058393E-2,-1.0227876E-1,-1.2782699E-1,-7.6552175E-2,-1.07996665E-1,-1.2380376E-1,-1.3194966E-1,-1.1061496E-1,-1.2247416E-1],"split_indices":[9,2,2,9,2,2,2,7,7,9,2,7,2,7,2,7,7,7,7,7,2,9,2,7,7,7,7,2,2,7,7,0,7,7,7,0,7,0,7,2,7,2,2,7,2,9,2,7,7,7,7,7,7,7,7,0,0,7,7,7,7,0,2,7,7,7,7,0,0,7,7,7,0,7,2,2,2,7,2,2,2,2,2,7,7,2,2,7,2,7,0,7,7,7,7,0,7,7,7,7,0,0,7,0,7,7,0,7,7,0,0,2,2,0,0,0,0,0,0,0,0,0,0,0,0,0,0,0,0,0,0,0,0,0,0,0,0,0,0,0,0,0,0,0,0,0,0,0,0,0,0,0,0,0,0,0,0,0,0,0,0,0,0,0,0,0,0,0,0,0,0,0,0,0,0,0,0,0,0,0,0,0,0,0,0,0,0,0,0,0,0,0,0],"split_type":[0,0,0,0,0,0,0,0,0,0,0,0,0,0,0,0,0,0,0,0,0,0,0,0,0,0,0,0,0,0,0,0,0,0,0,0,0,0,0,0,0,0,0,0,0,0,0,0,0,0,0,0,0,0,0,0,0,0,0,0,0,0,0,0,0,0,0,0,0,0,0,0,0,0,0,0,0,0,0,0,0,0,0,0,0,0,0,0,0,0,0,0,0,0,0,0,0,0,0,0,0,0,0,0,0,0,0,0,0,0,0,0,0,0,0,0,0,0,0,0,0,0,0,0,0,0,0,0,0,0,0,0,0,0,0,0,0,0,0,0,0,0,0,0,0,0,0,0,0,0,0,0,0,0,0,0,0,0,0,0,0,0,0,0,0,0,0,0,0,0,0,0,0,0,0,0,0,0,0,0,0,0,0,0,0,0,0,0,0,0,0,0,0],"sum_hessian":[9.8385E4,7.5842E4,2.2543E4,7.342E3,6.85E4,7.115E3,1.5428E4,3.249E3,4.093E3,5.2813E4,1.5687E4,2.103E3,5.012E3,5.465E3,9.963E3,5.33E2,2.716E3,3.633E3,4.6E2,2.9392E4,2.3421E4,7.113E3,8.574E3,1.536E3,5.67E2,2.365E3,2.647E3,3.657E3,1.808E3,5.703E3,4.26E3,3E1,5.03E2,2.586E3,1.3E2,7.9E1,3.554E3,1.2E1,4.48E2,2.3262E4,6.13E3,9.049E3,1.4372E4,3.86E3,3.253E3,3.997E3,4.577E3,1.11E2,1.425E3,4.95E2,7.2E1,1.963E3,4.02E2,9.01E2,1.746E3,1.917E3,1.74E3,9.33E2,8.75E2,3.277E3,2.426E3,2.641E3,1.619E3,2.53E2,2.5E2,9.85E2,1.601E3,6.3E1,6.7E1,2.903E3,6.51E2,3.9E2,5.8E1,6.179E3,1.7083E4,3.355E3,2.775E3,2.653E3,6.396E3,6.755E3,7.617E3,2.909E3,9.51E2,1.811E3,1.442E3,1.918E3,2.079E3,1.233E3,3.344E3,4.4E1,6.7E1,2.02E2,1.223E3,3.76E2,1.19E2,2.2E1,5E1,1.74E3,2.23E2,3.94E2,8E0,2.09E2,6.92E2,1.2E1,1.734E3,9.2E2,1.3E1,5.81E2,2.94E2,2.185E3,1.092E3,1.866E3,5.6E2,1.109E3,5.1E2,7E0,2.46E2,7.9E1,1.71E2,4.2E1,9.43E2,6.3E2,9.71E2,1.595E3,1.308E3,5.8E1,5.93E2,3.72E2,1.8E1,1.215E3,4.964E3,1.4468E4,2.615E3,3.028E3,3.27E2,5.21E2,2.254E3,2.56E2,2.397E3,2.965E3,3.431E3,3.356E3,3.399E3,2.974E3,4.643E3,1.717E3,1.192E3,5.34E2,4.17E2,7.96E2,1.015E3,1.62E2,1.28E3,1.094E3,8.24E2,1.195E3,8.84E2,1.042E3,1.91E2,2.192E3,1.152E3,3.8E1,6E0,1.93E2,9E0,3.62E2,8.61E2,2.9E2,8.6E1,1.12E2,7E0,2.5E1,2.5E1,1.447E3,2.93E2,2.6E1,1.97E2,3.03E2,9.1E1,1.8E1,6.74E2,4.8E1,1.686E3,9.06E2,1.4E1,1.13E2,4.68E2,1.3E1,2.81E2,7.42E2,1.124E3,2.37E2,3.23E2],"tree_param":{"num_deleted":"0","num_feature":"10","num_nodes":"193","size_leaf_vector":"1"}},{"base_weights":[7.727168E-4,-2.2045004E0,2.9154106E1,-3.0675747E0,7.190579E0,1.9972834E1,4.064512E1,-6.1405997E0,-1.9260318E0,4.6427994E0,1.0298617E1,3.0331224E1,1.406974E1,5.0181427E1,2.6245274E1,-1.9972168E0,-7.090199E0,-3.6363893E0,-9.9094665E-1,1.6698647E1,4.3229523E0,1.778684E1,8.12465E0,7.474641E-1,2.8141047E1,1.8475319E1,9.856401E0,4.5859657E1,6.5455826E1,2.0604448E1,3.923971E1,6.863687E-1,-3.893317E0,-7.8903065E0,-5.328844E0,-1.6383481E0,-5.2461147E0,-2.7721444E-1,-1.8027793E0,4.244077E0,2.1819454E1,3.2214193E0,6.234965E0,1.5929034E1,5.0007656E1,1.070529E1,6.113443E0,2.5453306E1,5.6634136E1,1.6569098E1,3.64558E1,9.677542E0,6.3420165E-1,7.2066086E1,4.406317E1,1.0656291E2,6.027857E1,2.6799192E1,1.5398136E1,5.5272358E1,2.4249813E1,-3.8005319E0,1.0332134E0,3.1913773E1,-4.0366507E0,-8.124275E0,-3.4056983E0,-5.3753457E0,2.198918E1,-1.0886784E0,-3.6404757E0,-4.1329846E0,-6.0641265E0,1.0699941E0,-1.9075768E0,-2.2817435E0,1.1788127E0,5.9962587E0,-6.767392E-2,3.1626629E1,1.7823486E1,5.494271E0,2.2853162E0,5.003502E0,1.0184397E1,3.7410595E1,1.496596E1,4.0424854E1,6.3053155E-1,9.016814E0,1.9311762E1,-1.7579575E0,6.58321E0,3.354992E1,2.2935429E1,6.5076675E1,4.321442E1,1.3567362E1,2.1536198E1,3.3609814E1,7.5157285E-1,-3.805249E0,1.0299711E1,9.0873075E-1,6.5841E1,4.052006E1,5.1397194E1,1.1484192E2,1.901827E1,5.1578384E1,7.386536E1,1.9431849E1,3.453149E1,1.208266E1,2.2145145E1,4.844008E1,1.6521063E2,3.2131405E1,1.2217574E1,-7.781275E-2,5.6228027E-2,1.4495774E-2,-1.0205692E-2,3.5050803E-1,1.8402528E-2,-1.6408136E-2,-6.00869E-2,-8.320928E-2,-6.944323E-2,-2.2779955E-2,-5.3353332E-2,-6.121082E-2,-4.5219887E-2,-1.5021182E-2,4.5780897E-1,-7.3243424E-2,-8.505396E-3,-4.263193E-2,-4.9458263E-3,-4.215464E-2,1.3400777E-2,-6.667475E-2,-3.331146E-2,2.028315E-2,-2.0362921E-2,-3.1383313E-2,-4.1372934E-3,-2.3362543E-2,8.964383E-2,-7.5058537E-3,1.926286E-2,1.8058976E-2,3.173454E-1,2.186554E-1,4.4755206E-1,2.2686934E-1,3.9429657E-2,4.4397045E-2,1.5553515E-1,2.4307389E-3,3.4334432E-2,5.3611152E-2,-5.0542977E-2,4.6592334E-1,8.339471E-2,4.082151E-1,-8.031779E-2,1.2591024E-1,2.1149294E-1,2.8414127E-1,4.6906343E-1,7.363549E-2,1.2696125E-1,1.8477651E-1,4.6811923E-1,3.9672017E-2,-6.8226E-2,7.540262E-2,3.337784E-2,2.6524517E-1,3.5866138E-1,2.0067877E-1,2.961952E-1,5.84178E-1,8.658819E-1,5.341141E-1,1.7900074E-1,9.0688445E-2,1.537407E-1,2.314162E-1,1.1476984E-1,3.5438767E-1,-3.3888422E-2,8.4957786E-2,-6.032416E-2,9.317951E-2,1.4220595E-1,2.5196868E-1,6.983042E-1,3.7796238E-1,5.346471E-1,4.4060406E-1,5.774922E-1,1.2542564E0,8.3212215E-1,-6.1891902E-2,2.6867434E-1,5.458934E-1,2.8552076E-1,8.736047E-1,6.0467565E-1,2.6737267E-1,1.7044158E-1,3.1384385E-1,8.2604253E-1,8.287853E-2,1.486725E-1,3.5765538E-1,1.8391065E-1,2.0945217E-1,5.3292674E-1,4.0055933E0,5.630352E-1,1.08365074E-1,4.3628132E-1,9.965023E-2,2.8379908E-1],"categories":[],"categories_nodes":[],"categories_segments":[],"categories_sizes":[],"default_left":[0,0,0,0,0,0,0,0,0,0,0,0,0,0,0,0,0,0,0,0,0,0,0,0,0,0,0,0,0,0,0,0,0,0,0,0,0,0,0,0,0,0,0,0,0,0,0,0,0,0,0,0,0,0,0,0,0,0,0,0,0,0,0,0,0,0,0,0,0,0,0,0,0,0,0,0,0,0,0,0,0,0,0,0,0,0,0,0,0,0,0,0,0,0,0,0,0,0,0,0,0,0,0,0,0,0,0,0,0,0,0,0,0,0,0,0,0,0,0,0,0,0,0,0,0,0,0,0,0,0,0,0,0,0,0,0,0,0,0,0,0,0,0,0,0,0,0,0,0,0,0,0,0,0,0,0,0,0,0,0,0,0,0,0,0,0,0,0,0,0,0,0,0,0,0,0,0,0,0,0,0,0,0,0,0,0,0,0,0,0,0,0,0,0,0,0,0,0,0,0,0,0,0,0,0,0,0,0,0,0,0,0,0,0,0,0,0,0,0,0,0,0,0,0,0,0,0],"id":6,"left_children":[1,3,5,7,9,11,13,15,17,19,21,23,25,27,29,31,33,35,37,39,41,43,45,-1,47,49,51,53,55,57,59,61,63,65,67,69,71,73,75,77,79,81,83,85,87,89,91,93,95,97,99,101,-1,103,105,107,109,111,113,115,117,119,121,123,125,127,129,131,133,135,137,139,141,143,145,147,149,151,-1,153,155,157,159,161,163,165,167,169,-1,171,173,175,177,179,181,183,185,187,189,191,-1,193,195,-1,197,199,201,203,205,207,209,211,213,215,217,219,221,223,225,-1,-1,-1,-1,-1,-1,-1,-1,-1,-1,-1,-1,-1,-1,-1,-1,-1,-1,-1,-1,-1,-1,-1,-1,-1,-1,-1,-1,-1,-1,-1,-1,-1,-1,-1,-1,-1,-1,-1,-1,-1,-1,-1,-1,-1,-1,-1,-1,-1,-1,-1,-1,-1,-1,-1,-1,-1,-1,-1,-1,-1,-1,-1,-1,-1,-1,-1,-1,-1,-1,-1,-1,-1,-1,-1,-1,-1,-1,-1,-1,-1,-1,-1,-1,-1,-1,-1,-1,-1,-1,-1,-1,-1,-1,-1,-1,-1,-1,-1,-1,-1,-1,-1,-1,-1,-1,-1,-1],"loss_changes":[6.3254045E6,7.417042E5,7.291575E5,2.93863E5,6.0893688E4,2.3486512E5,4.20534E5,8.9260875E4,9.768986E4,1.6242664E4,5.627903E4,1.3369562E5,4.5351E4,1.189235E5,8.90565E4,2.1536559E4,2.5971812E4,6.94345E4,2.288355E4,6.8591367E3,8.663547E3,4.5834406E4,1.38858125E4,0E0,1.0056575E5,4.0457094E4,1.1419234E4,6.476E4,7.9769375E4,2.7227125E4,8.758094E4,2.7320464E3,1.2857086E4,1.3288375E4,7.446797E3,1.0599443E4,1.08624375E4,4.6166777E4,2.6389246E4,6.772842E2,2.453871E3,5.5575586E3,7.2735938E3,1.4708109E4,2.7016016E3,1.6915281E4,5.6062344E3,2.4081375E4,1.0103531E4,1.5885094E4,1.0030391E4,1.0550078E4,0E0,4.6706562E3,3.30755E4,2.9706344E4,3.8981375E4,2.1545906E4,1.0201383E4,1.25698125E5,1.791025E4,4.77025E3,1.3936171E3,8.7891406E2,1.166484E4,2.740875E3,1.360936E3,3.6378594E3,5.6577524E3,1.1221504E4,4.0628242E3,2.2934219E3,1.1338984E4,3.426434E4,1.7483402E4,9.780484E3,3.6905256E3,3.070419E3,0E0,1.7125371E3,3.758457E3,8.024959E3,4.3510283E3,4.163422E3,2.3591102E4,5.132871E3,1.0130703E4,7.690781E2,0E0,5.8981484E3,3.5391562E3,2.5207131E3,4.410254E3,3.7188438E3,1.7288406E4,4.6821875E3,1.1176055E4,5.3791562E3,6.3071875E3,7.428328E3,0E0,1.5854507E3,4.479039E3,0E0,9.9150625E3,3.0311625E4,1.782125E4,2.9534375E3,1.1555748E3,1.39715625E4,1.9849375E4,3.067789E3,2.600136E4,3.2159453E3,7.1654375E3,2.1432E4,2.337586E5,2.792654E4,2.5568984E3,0E0,0E0,0E0,0E0,0E0,0E0,0E0,0E0,0E0,0E0,0E0,0E0,0E0,0E0,0E0,0E0,0E0,0E0,0E0,0E0,0E0,0E0,0E0,0E0,0E0,0E0,0E0,0E0,0E0,0E0,0E0,0E0,0E0,0E0,0E0,0E0,0E0,0E0,0E0,0E0,0E0,0E0,0E0,0E0,0E0,0E0,0E0,0E0,0E0,0E0,0E0,0E0,0E0,0E0,0E0,0E0,0E0,0E0,0E0,0E0,0E0,0E0,0E0,0E0,0E0,0E0,0E0,0E0,0E0,0E0,0E0,0E0,0E0,0E0,0E0,0E0,0E0,0E0,0E0,0E0,0E0,0E0,0E0,0E0,0E0,0E0,0E0,0E0,0E0,0E0,0E0,0E0,0E0,0E0,0E0,0E0,0E0,0E0,0E0,0E0,0E0,0E0,0E0,0E0,0E0,0E0,0E0,0E0],"parents":[2147483647,0,0,1,1,2,2,3,3,4,4,5,5,6,6,7,7,8,8,9,9,10,10,11,11,12,12,13,13,14,14,15,15,16,16,17,17,18,18,19,19,20,20,21,21,22,22,24,24,25,25,26,26,27,27,28,28,29,29,30,30,31,31,32,32,33,33,34,34,35,35,36,36,37,37,38,38,39,39,40,40,41,41,42,42,43,43,44,44,45,45,46,46,47,47,48,48,49,49,50,50,51,51,53,53,54,54,55,55,56,56,57,57,58,58,59,59,60,60,61,61,62,62,63,63,64,64,65,65,66,66,67,67,68,68,69,69,70,70,71,71,72,72,73,73,74,74,75,75,76,76,77,77,79,79,80,80,81,81,82,82,83,83,84,84,85,85,86,86,87,87,89,89,90,90,91,91,92,92,93,93,94,94,95,95,96,96,97,97,98,98,99,99,101,101,102,102,104,104,105,105,106,106,107,107,108,108,109,109,110,110,111,111,112,112,113,113,114,114,115,115,116,116,117,117,118,118],"right_children":[2,4,6,8,10,12,14,16,18,20,22,24,26,28,30,32,34,36,38,40,42,44,46,-1,48,50,52,54,56,58,60,62,64,66,68,70,72,74,76,78,80,82,84,86,88,90,92,94,96,98,100,102,-1,104,106,108,110,112,114,116,118,120,122,124,126,128,130,132,134,136,138,140,142,144,146,148,150,152,-1,154,156,158,160,162,164,166,168,170,-1,172,174,176,178,180,182,184,186,188,190,192,-1,194,196,-1,198,200,202,204,206,208,210,212,214,216,218,220,222,224,226,-1,-1,-1,-1,-1,-1,-1,-1,-1,-1,-1,-1,-1,-1,-1,-1,-1,-1,-1,-1,-1,-1,-1,-1,-1,-1,-1,-1,-1,-1,-1,-1,-1,-1,-1,-1,-1,-1,-1,-1,-1,-1,-1,-1,-1,-1,-1,-1,-1,-1,-1,-1,-1,-1,-1,-1,-1,-1,-1,-1,-1,-1,-1,-1,-1,-1,-1,-1,-1,-1,-1,-1,-1,-1,-1,-1,-1,-1,-1,-1,-1,-1,-1,-1,-1,-1,-1,-1,-1,-1,-1,-1,-1,-1,-1,-1,-1,-1,-1,-1,-1,-1,-1,-1,-1,-1,-1,-1],"split_conditions":[3.41424E1,2.2113056E1,4.8619423E1,8.327863E0,2.735612E1,1.23147E0,1.4169058E0,4.5310555E0,7E0,1.1289123E0,1.1965778E0,1.1071153E0,1.4385104E0,7.837086E1,7.837086E1,1.1744806E0,7.5256767E0,1.1445158E0,1.229396E0,2.3783443E1,2.5188765E1,2E1,1.3399322E0,7.474641E-1,2.1E1,2.6E1,1.32E2,1.1284143E0,1.1401917E0,1.6884226E0,1.7328498E0,2.082945E0,5E0,1.3979459E0,1.9E1,1.32213E1,1.1731035E0,9E0,1.8758375E1,1.3E1,6E0,1.2229261E0,1.8E1,1.1071153E0,3.2298744E1,1.9E1,6E0,1.1420217E0,1.1829002E0,4.1190937E1,5.7E1,7E0,6.3420165E-1,6E0,6.2713104E1,2.2E1,2.1E1,5.7935883E1,3.8E1,6.9E1,2.2132306E0,1.1585356E0,1.1623764E0,1.4237088E0,3.338848E0,1.2720275E0,6.510586E0,7.9795904E0,8.234503E0,1.125157E0,6E0,1.1725099E0,1.5729987E1,1.3360036E1,1.198286E0,1.9874679E0,1E1,1.1E1,-6.767392E-2,1.1285341E0,1.125157E0,1.5E1,1.1E1,1.6242903E0,1.1949095E0,1.8E1,1E1,1.1598375E0,6.3053155E-1,3.148048E1,4.2E1,1.4552904E0,1.6242903E0,3.7356754E1,1.2E1,3.3E1,2.6E1,1E1,1.4039811E0,4.5E1,7.5157285E-1,1.4552904E0,4.4441425E1,9.0873075E-1,7E0,2.1E1,1.3E1,1.1343415E0,2.7E1,1.8E1,2.8E1,1.4749826E0,4.5E1,2.1E1,1.8667698E0,1.6E1,7E1,3.1E1,1.03E2,-7.781275E-2,5.6228027E-2,1.4495774E-2,-1.0205692E-2,3.5050803E-1,1.8402528E-2,-1.6408136E-2,-6.00869E-2,-8.320928E-2,-6.944323E-2,-2.2779955E-2,-5.3353332E-2,-6.121082E-2,-4.5219887E-2,-1.5021182E-2,4.5780897E-1,-7.3243424E-2,-8.505396E-3,-4.263193E-2,-4.9458263E-3,-4.215464E-2,1.3400777E-2,-6.667475E-2,-3.331146E-2,2.028315E-2,-2.0362921E-2,-3.1383313E-2,-4.1372934E-3,-2.3362543E-2,8.964383E-2,-7.5058537E-3,1.926286E-2,1.8058976E-2,3.173454E-1,2.186554E-1,4.4755206E-1,2.2686934E-1,3.9429657E-2,4.4397045E-2,1.5553515E-1,2.4307389E-3,3.4334432E-2,5.3611152E-2,-5.0542977E-2,4.6592334E-1,8.339471E-2,4.082151E-1,-8.031779E-2,1.2591024E-1,2.1149294E-1,2.8414127E-1,4.6906343E-1,7.363549E-2,1.2696125E-1,1.8477651E-1,4.6811923E-1,3.9672017E-2,-6.8226E-2,7.540262E-2,3.337784E-2,2.6524517E-1,3.5866138E-1,2.0067877E-1,2.961952E-1,5.84178E-1,8.658819E-1,5.341141E-1,1.7900074E-1,9.0688445E-2,1.537407E-1,2.314162E-1,1.1476984E-1,3.5438767E-1,-3.3888422E-2,8.4957786E-2,-6.032416E-2,9.317951E-2,1.4220595E-1,2.5196868E-1,6.983042E-1,3.7796238E-1,5.346471E-1,4.4060406E-1,5.774922E-1,1.2542564E0,8.3212215E-1,-6.1891902E-2,2.6867434E-1,5.458934E-1,2.8552076E-1,8.736047E-1,6.0467565E-1,2.6737267E-1,1.7044158E-1,3.1384385E-1,8.2604253E-1,8.287853E-2,1.486725E-1,3.5765538E-1,1.8391065E-1,2.0945217E-1,5.3292674E-1,4.0055933E0,5.630352E-1,1.08365074E-1,4.3628132E-1,9.965023E-2,2.8379908E-1],"split_indices":[6,6,6,6,6,1,1,6,4,1,1,1,1,6,6,1,6,1,1,6,6,4,1,0,4,4,4,1,1,1,1,6,4,1,4,6,1,4,6,4,4,1,4,1,6,4,4,1,1,6,4,4,0,4,6,4,4,6,4,4,1,1,1,1,6,1,6,6,6,1,4,1,6,6,1,1,4,4,0,1,1,4,4,1,1,4,4,1,0,6,4,1,1,6,4,4,4,4,1,4,0,1,6,0,4,4,4,1,4,4,4,1,4,4,1,4,4,4,4,0,0,0,0,0,0,0,0,0,0,0,0,0,0,0,0,0,0,0,0,0,0,0,0,0,0,0,0,0,0,0,0,0,0,0,0,0,0,0,0,0,0,0,0,0,0,0,0,0,0,0,0,0,0,0,0,0,0,0,0,0,0,0,0,0,0,0,0,0,0,0,0,0,0,0,0,0,0,0,0,0,0,0,0,0,0,0,0,0,0,0,0,0,0,0,0,0,0,0,0,0,0,0,0,0,0,0,0],"split_type":[0,0,0,0,0,0,0,0,0,0,0,0,0,0,0,0,0,0,0,0,0,0,0,0,0,0,0,0,0,0,0,0,0,0,0,0,0,0,0,0,0,0,0,0,0,0,0,0,0,0,0,0,0,0,0,0,0,0,0,0,0,0,0,0,0,0,0,0,0,0,0,0,0,0,0,0,0,0,0,0,0,0,0,0,0,0,0,0,0,0,0,0,0,0,0,0,0,0,0,0,0,0,0,0,0,0,0,0,0,0,0,0,0,0,0,0,0,0,0,0,0,0,0,0,0,0,0,0,0,0,0,0,0,0,0,0,0,0,0,0,0,0,0,0,0,0,0,0,0,0,0,0,0,0,0,0,0,0,0,0,0,0,0,0,0,0,0,0,0,0,0,0,0,0,0,0,0,0,0,0,0,0,0,0,0,0,0,0,0,0,0,0,0,0,0,0,0,0,0,0,0,0,0,0,0,0,0,0,0,0,0,0,0,0,0,0,0,0,0,0,0,0,0,0,0,0,0],"sum_hessian":[9.8385E4,9.1467E4,6.918E3,8.3772E4,7.695E3,3.847E3,3.071E3,2.2689E4,6.1083E4,4.23E3,3.465E3,1.395E3,2.452E3,1.846E3,1.225E3,4.231E3,1.8458E4,2.159E4,3.9493E4,1.08E2,4.122E3,7.78E2,2.687E3,6.4E1,1.331E3,1.197E3,1.255E3,1.442E3,4.04E2,8.56E2,3.69E2,1.752E3,2.479E3,1.269E4,5.768E3,9.634E3,1.1956E4,2.1017E4,1.8476E4,3.2E1,7.6E1,2.617E3,1.505E3,7.37E2,4.1E1,1.175E3,1.512E3,1.218E3,1.13E2,1.084E3,1.13E2,1.252E3,3E0,9E1,1.352E3,4.3E1,3.61E2,3.89E2,4.67E2,1.77E2,1.92E2,1.25E2,1.627E3,9E0,2.47E3,1.206E4,6.3E2,5.759E3,9E0,7.56E3,2.074E3,5.067E3,6.889E3,1.1508E4,9.509E3,1.5919E4,2.557E3,2.8E1,4E0,2E1,5.6E1,7.62E2,1.855E3,1.149E3,3.56E2,3E1,7.07E2,2.6E1,1.5E1,9.84E2,1.91E2,8.5E1,1.427E3,2.86E2,9.32E2,6.7E1,4.6E1,6.78E2,4.06E2,1.07E2,6E0,5.5E1,1.197E3,1.9E1,7.1E1,9.16E2,4.36E2,3.9E1,4E0,2.23E2,1.38E2,2.01E2,1.88E2,3.15E2,1.52E2,1.68E2,9E0,1.15E2,7.7E1,8.8E1,3.7E1,1.353E3,2.74E2,8E0,1E0,1.116E3,1.354E3,1.0332E4,1.728E3,3.99E2,2.31E2,3.07E3,2.689E3,5E0,4E0,2.77E2,7.283E3,1.731E3,3.43E2,4.992E3,7.5E1,5.642E3,1.247E3,8.795E3,2.713E3,5.213E3,4.296E3,1.5843E4,7.6E1,7.14E2,1.843E3,2.5E1,3E0,1.3E1,7E0,4.1E1,1.5E1,6.91E2,7.1E1,6.68E2,1.187E3,1.11E3,3.9E1,1.6E1,3.4E2,2.8E1,2E0,5.13E2,1.94E2,1.1E1,1.5E1,6.81E2,3.03E2,1.87E2,4E0,4E1,4.5E1,1.101E3,3.26E2,7.4E1,2.12E2,6.55E2,2.77E2,5.4E1,1.3E1,3.2E1,1.4E1,1.96E2,4.82E2,3.49E2,5.7E1,1.02E2,5E0,8E0,4.7E1,9.6E2,2.37E2,7E0,6.4E1,7.6E2,1.56E2,2.06E2,2.3E2,2.7E1,1.2E1,1E0,3E0,1.96E2,2.7E1,6.6E1,7.2E1,4.7E1,1.54E2,1.78E2,1E1,1.35E2,1.8E2,3.1E1,1.21E2,2.6E1,1.42E2,2E0,7E0,4.1E1,7.4E1,6.9E1,8E0],"tree_param":{"num_deleted":"0","num_feature":"10","num_nodes":"227","size_leaf_vector":"1"}},{"base_weights":[1.0569684E-3,-2.182399E0,2.8865973E1,3.716198E0,-4.7709517E0,1.9774817E1,4.0244194E1,5.658787E0,9.114802E-1,-6.0765724E0,4.9088306E0,1.7073452E1,2.379046E1,3.610322E1,5.2492073E1,6.313937E-1,6.7948017E0,-1.0973966E0,7.7107615E0,-3.2485719E0,-8.355278E0,2.008477E0,9.713492E0,1.6986292E1,6.294451E-1,2.4520788E1,1.8186295E1,5.035842E1,3.4585686E1,5.5104763E1,3.2767895E1,3.71894E0,1.6872352E-1,7.224852E0,-1.0448902E0,-3.511641E0,-3.49754E-1,6.243116E0,1.0633802E1,6.548466E-1,-3.5513093E0,-9.697009E0,-5.2066436E0,7.492925E-1,3.5508916E0,7.5433893E0,1.1609505E1,1.7193863E1,3.4489121E0,2.4650398E1,-5.291592E-1,1.1492016E1,2.3441193E1,3.7119953E1,5.727562E1,3.6951717E1,2.7662083E1,8.647823E1,5.347795E1,-6.4483447E0,3.4602875E1,2.2957332E0,5.313444E0,3.3443287E-1,-5.4349084E0,4.863457E0,8.9041605E0,7.195099E-1,-3.7418604E0,-9.860551E-1,-4.2566175E0,1.8432871E0,-9.234301E-1,3.7438762E0,7.9648466E0,1.0489177E1,3.9286712E-1,3.1761854E1,5.156883E-1,-6.510456E0,-2.7946737E0,-8.682481E0,-1.109813E1,-6.020229E0,-2.9099002E0,-2.9043977E0,1.469915E0,2.974364E0,4.7070966E0,6.368572E0,1.0901993E1,1.1400133E1,3.0525558E1,1.7973255E1,1.4886619E1,-3.7169805E0,9.3674755E0,2.4403763E1,6.872926E1,-4.722269E0,1.4411305E-1,1.3667894E1,8.6189616E-1,2.4781118E1,-1.9044985E0,4.8861304E-1,1.7742374E1,6.3062695E1,4.8791283E1,3.4101215E1,4.24891E1,2.3126326E1,3.2145E1,1.1467247E0,3.6450302E1,5.456962E1,3.3312786E1,-1.04879774E-1,4.855095E-2,2.0265186E1,4.019835E1,5.6516793E-2,1.0168978E-2,6.760219E-2,3.3545356E-2,-6.124764E-4,1.8108785E-2,-1.2558344E-1,-1.9056626E-2,5.2661248E-2,3.4641005E-2,1.0509466E-1,7.175606E-2,1.4257671E-2,-8.280002E-2,8.083325E-2,-4.1691363E-2,-4.3698706E-2,-3.4227446E-3,-4.5305867E-2,2.0714481E-3,3.72663E-2,-1.8279549E-2,-1.6223371E-2,1.3016365E-2,1.0085438E-2,5.322049E-2,1.7030235E-1,7.3547326E-2,1.2042629E-1,8.2405776E-2,1.8310517E-2,3.5776103E-1,1.1024399E-2,-4.4404443E-2,-2.8999409E-2,-6.712455E-2,-4.5811404E-2,-1.9534767E-2,-3.505418E-2,-8.9692496E-2,-1.1535394E-1,-9.440056E-2,-7.022025E-2,-5.2217845E-2,-2.944504E-2,4.0519673E-1,-3.461973E-2,-5.0948225E-3,7.818158E-3,3.0909574E-2,3.76063E-2,1.2043068E-2,5.7659037E-2,2.3250435E-2,5.8345903E-2,7.4684635E-2,1.2120827E-1,5.0686732E-2,8.842193E-2,1.2247194E-1,4.4072866E-1,1.1469144E-1,1.6948578E-1,1.9934174E-1,7.358035E-2,1.5680186E-1,-4.3378066E-2,3.108119E-2,-8.6522266E-2,1.1850344E-1,2.575187E-1,2.2494295E-1,-7.1416445E-2,8.256469E-1,-8.774557E-2,5.1058577E-3,2.6419463E-3,1.4960766E-1,-6.88286E-2,3.3716567E-2,2.3433422E-1,5.8748555E-1,-6.424546E-2,1.03478715E-1,2.4752328E-1,4.5805868E-2,3.7407315E-1,6.979904E-1,7.273885E-1,3.3801645E-1,3.478172E-1,2.3494585E-1,4.750575E-1,2.9118174E-1,2.4360813E-1,1.4176875E-1,2.92783E-1,5.0844884E-1,5.0975204E-1,3.0154208E-2,5.283823E-1,1.7955009E0,2.5932392E-1,5.257258E-1,-5.0166067E-2,2.1430509E-1,3.4493437E-1,6.156976E-1],"categories":[],"categories_nodes":[],"categories_segments":[],"categories_sizes":[],"default_left":[0,0,0,0,0,0,0,0,0,0,0,0,0,0,0,0,0,0,0,0,0,0,0,0,0,0,0,0,0,0,0,0,0,0,0,0,0,0,0,0,0,0,0,0,0,0,0,0,0,0,0,0,0,0,0,0,0,0,0,0,0,0,0,0,0,0,0,0,0,0,0,0,0,0,0,0,0,0,0,0,0,0,0,0,0,0,0,0,0,0,0,0,0,0,0,0,0,0,0,0,0,0,0,0,0,0,0,0,0,0,0,0,0,0,0,0,0,0,0,0,0,0,0,0,0,0,0,0,0,0,0,0,0,0,0,0,0,0,0,0,0,0,0,0,0,0,0,0,0,0,0,0,0,0,0,0,0,0,0,0,0,0,0,0,0,0,0,0,0,0,0,0,0,0,0,0,0,0,0,0,0,0,0,0,0,0,0,0,0,0,0,0,0,0,0,0,0,0,0,0,0,0,0,0,0,0,0,0,0,0,0,0,0,0,0,0,0,0,0,0,0,0,0,0,0,0,0,0,0],"id":7,"left_children":[1,3,5,7,9,11,13,15,17,19,21,23,25,27,29,31,33,35,37,39,41,43,45,47,-1,49,51,53,55,57,59,61,63,65,67,69,71,73,75,77,79,81,83,85,87,89,91,93,95,97,99,101,103,105,107,109,111,113,115,117,119,121,123,125,127,129,131,133,135,137,139,141,143,145,147,149,-1,151,153,155,157,159,161,163,165,167,169,171,173,175,177,179,181,183,185,187,189,191,193,195,-1,197,199,201,203,-1,205,207,209,211,213,215,217,-1,219,221,223,-1,-1,225,227,-1,-1,-1,-1,-1,-1,-1,-1,-1,-1,-1,-1,-1,-1,-1,-1,-1,-1,-1,-1,-1,-1,-1,-1,-1,-1,-1,-1,-1,-1,-1,-1,-1,-1,-1,-1,-1,-1,-1,-1,-1,-1,-1,-1,-1,-1,-1,-1,-1,-1,-1,-1,-1,-1,-1,-1,-1,-1,-1,-1,-1,-1,-1,-1,-1,-1,-1,-1,-1,-1,-1,-1,-1,-1,-1,-1,-1,-1,-1,-1,-1,-1,-1,-1,-1,-1,-1,-1,-1,-1,-1,-1,-1,-1,-1,-1,-1,-1,-1,-1,-1,-1,-1,-1,-1,-1,-1,-1],"loss_changes":[6.200868E6,1.396627E6,7.149135E5,1.5199462E5,8.0344825E5,4.133575E4,1.539115E5,9.4127625E4,1.5595233E5,3.6095012E5,1.0527505E5,8.142625E3,5.8775625E3,4.799175E4,3.8081E4,4.3406313E3,4.53335E4,1.5907972E4,1.1104734E4,2.9541531E4,1.30997E5,9.150855E3,1.1614156E4,6.4065625E3,0E0,4.4415625E3,6.132965E3,1.7928438E4,3.3068E4,3.0183625E4,6.915508E3,8.8644775E2,2.456968E3,5.0497125E4,3.333667E3,3.9168535E3,8.469941E3,7.4402188E3,3.1889844E3,7.7754604E3,5.1922062E4,3.082075E4,1.7306203E4,6.8393594E3,1.3978242E3,5.1744688E3,5.656078E3,3.80725E3,1.561643E3,1.30751875E4,5.6923016E2,1.8848672E3,3.477293E3,1.6879562E4,3.8952188E3,2.298525E4,1.0114625E4,4.0956125E4,1.251325E4,2.792289E2,6.3255E3,8.998021E2,5.0446582E2,1.5009227E3,1.8867351E3,2.9676328E3,2.0588875E4,2.706737E3,1.4332756E3,1.0354392E3,1.9686367E3,9.659047E3,8.300203E3,3.05958E3,5.555E3,2.9257812E3,0E0,8.9568896E2,5.2189727E3,3.4251094E3,2.775625E4,1.8704438E4,6.511375E3,5.4385156E3,3.7666934E3,5.6976465E2,2.4169683E3,1.9661699E3,1.7596553E3,5.3610547E2,2.377246E3,3.1439844E3,3.6251318E3,3.0559375E3,3.3378594E3,8.55148E1,9.9734265E2,2.8984375E3,7.9375938E3,1.529154E2,0E0,1.1744365E3,3.1476892E2,3.0179844E3,3.987682E2,0E0,2.746788E3,1.1387719E4,1.9797156E4,6.595625E3,3.3631062E4,2.6265312E3,1.27708125E4,0E0,6.159584E3,1.238085E5,3.753879E3,0E0,0E0,9.0296875E2,5.557336E3,0E0,0E0,0E0,0E0,0E0,0E0,0E0,0E0,0E0,0E0,0E0,0E0,0E0,0E0,0E0,0E0,0E0,0E0,0E0,0E0,0E0,0E0,0E0,0E0,0E0,0E0,0E0,0E0,0E0,0E0,0E0,0E0,0E0,0E0,0E0,0E0,0E0,0E0,0E0,0E0,0E0,0E0,0E0,0E0,0E0,0E0,0E0,0E0,0E0,0E0,0E0,0E0,0E0,0E0,0E0,0E0,0E0,0E0,0E0,0E0,0E0,0E0,0E0,0E0,0E0,0E0,0E0,0E0,0E0,0E0,0E0,0E0,0E0,0E0,0E0,0E0,0E0,0E0,0E0,0E0,0E0,0E0,0E0,0E0,0E0,0E0,0E0,0E0,0E0,0E0,0E0,0E0,0E0,0E0,0E0,0E0,0E0,0E0,0E0,0E0,0E0,0E0,0E0,0E0,0E0,0E0,0E0,0E0],"parents":[2147483647,0,0,1,1,2,2,3,3,4,4,5,5,6,6,7,7,8,8,9,9,10,10,11,11,12,12,13,13,14,14,15,15,16,16,17,17,18,18,19,19,20,20,21,21,22,22,23,23,25,25,26,26,27,27,28,28,29,29,30,30,31,31,32,32,33,33,34,34,35,35,36,36,37,37,38,38,39,39,40,40,41,41,42,42,43,43,44,44,45,45,46,46,47,47,48,48,49,49,50,50,51,51,52,52,53,53,54,54,55,55,56,56,57,57,58,58,59,59,60,60,61,61,62,62,63,63,64,64,65,65,66,66,67,67,68,68,69,69,70,70,71,71,72,72,73,73,74,74,75,75,77,77,78,78,79,79,80,80,81,81,82,82,83,83,84,84,85,85,86,86,87,87,88,88,89,89,90,90,91,91,92,92,93,93,94,94,95,95,96,96,97,97,98,98,99,99,101,101,102,102,103,103,104,104,106,106,107,107,108,108,109,109,110,110,111,111,112,112,114,114,115,115,116,116,119,119,120,120],"right_children":[2,4,6,8,10,12,14,16,18,20,22,24,26,28,30,32,34,36,38,40,42,44,46,48,-1,50,52,54,56,58,60,62,64,66,68,70,72,74,76,78,80,82,84,86,88,90,92,94,96,98,100,102,104,106,108,110,112,114,116,118,120,122,124,126,128,130,132,134,136,138,140,142,144,146,148,150,-1,152,154,156,158,160,162,164,166,168,170,172,174,176,178,180,182,184,186,188,190,192,194,196,-1,198,200,202,204,-1,206,208,210,212,214,216,218,-1,220,222,224,-1,-1,226,228,-1,-1,-1,-1,-1,-1,-1,-1,-1,-1,-1,-1,-1,-1,-1,-1,-1,-1,-1,-1,-1,-1,-1,-1,-1,-1,-1,-1,-1,-1,-1,-1,-1,-1,-1,-1,-1,-1,-1,-1,-1,-1,-1,-1,-1,-1,-1,-1,-1,-1,-1,-1,-1,-1,-1,-1,-1,-1,-1,-1,-1,-1,-1,-1,-1,-1,-1,-1,-1,-1,-1,-1,-1,-1,-1,-1,-1,-1,-1,-1,-1,-1,-1,-1,-1,-1,-1,-1,-1,-1,-1,-1,-1,-1,-1,-1,-1,-1,-1,-1,-1,-1,-1,-1,-1,-1,-1,-1],"split_conditions":[3.41424E1,1E0,4.8619423E1,1.2961292E1,1.8535805E1,4.1190937E1,7.837086E1,7.5256767E0,2.3783443E1,2E0,2.5188765E1,8.1E1,3E0,6E0,4E0,3.338848E0,1.2E1,6E0,2.9916462E1,4.5310555E0,1.1686878E1,2.1408085E1,2.855605E1,4.5E1,6.294451E-1,6.7E1,4E0,5.4180695E1,2E0,6E0,8E0,2.8175254E0,1E1,7E0,1.4E1,1.3817181E1,1.40827265E1,1E1,5.8E1,5E0,7.9795904E0,3E0,1.5602507E1,6E0,2.3783443E1,1.8E1,4.6E1,2E0,3.7356754E1,6.2E1,9.1E1,2.6E1,4.5E1,1E0,1E0,6.2713104E1,5.7935883E1,9.8321724E1,7.3E1,6E0,9.8321724E1,2.082945E0,3.094455E0,7E0,6.510586E0,1.1595991E1,8E0,1.2719132E1,8.283985E0,1.3092712E1,2.2458294E1,1E1,2.0296041E1,2.575898E1,1.1E1,1.4E1,3.9286712E-1,2.082945E0,6E0,4.819842E0,6E0,3.7762644E0,1.0072385E1,1.3027021E1,9E0,3E0,1.4E1,2.2861935E1,2.4712164E1,2.735612E1,3.1E1,9E0,5E1,3.8421013E1,7E0,6.6E1,4.6E1,1E0,1E0,1E0,1.4411305E-1,6E0,3E1,4.2E1,5.8E1,4.8861304E-1,5.1147144E1,5.7935883E1,5.7935883E1,4.2E1,2.9E1,5E0,4.5E1,1.1467247E0,1E0,6.9E1,1.2E2,-1.04879774E-1,4.855095E-2,1.4E1,5.5E1,5.6516793E-2,1.0168978E-2,6.760219E-2,3.3545356E-2,-6.124764E-4,1.8108785E-2,-1.2558344E-1,-1.9056626E-2,5.2661248E-2,3.4641005E-2,1.0509466E-1,7.175606E-2,1.4257671E-2,-8.280002E-2,8.083325E-2,-4.1691363E-2,-4.3698706E-2,-3.4227446E-3,-4.5305867E-2,2.0714481E-3,3.72663E-2,-1.8279549E-2,-1.6223371E-2,1.3016365E-2,1.0085438E-2,5.322049E-2,1.7030235E-1,7.3547326E-2,1.2042629E-1,8.2405776E-2,1.8310517E-2,3.5776103E-1,1.1024399E-2,-4.4404443E-2,-2.8999409E-2,-6.712455E-2,-4.5811404E-2,-1.9534767E-2,-3.505418E-2,-8.9692496E-2,-1.1535394E-1,-9.440056E-2,-7.022025E-2,-5.2217845E-2,-2.944504E-2,4.0519673E-1,-3.461973E-2,-5.0948225E-3,7.818158E-3,3.0909574E-2,3.76063E-2,1.2043068E-2,5.7659037E-2,2.3250435E-2,5.8345903E-2,7.4684635E-2,1.2120827E-1,5.0686732E-2,8.842193E-2,1.2247194E-1,4.4072866E-1,1.1469144E-1,1.6948578E-1,1.9934174E-1,7.358035E-2,1.5680186E-1,-4.3378066E-2,3.108119E-2,-8.6522266E-2,1.1850344E-1,2.575187E-1,2.2494295E-1,-7.1416445E-2,8.256469E-1,-8.774557E-2,5.1058577E-3,2.6419463E-3,1.4960766E-1,-6.88286E-2,3.3716567E-2,2.3433422E-1,5.8748555E-1,-6.424546E-2,1.03478715E-1,2.4752328E-1,4.5805868E-2,3.7407315E-1,6.979904E-1,7.273885E-1,3.3801645E-1,3.478172E-1,2.3494585E-1,4.750575E-1,2.9118174E-1,2.4360813E-1,1.4176875E-1,2.92783E-1,5.0844884E-1,5.0975204E-1,3.0154208E-2,5.283823E-1,1.7955009E0,2.5932392E-1,5.257258E-1,-5.0166067E-2,2.1430509E-1,3.4493437E-1,6.156976E-1],"split_indices":[6,3,6,6,6,6,6,6,6,3,6,4,3,4,3,6,4,4,6,6,6,6,6,4,0,4,3,6,3,4,4,6,4,4,4,6,6,4,4,4,6,3,6,4,6,4,4,3,6,4,4,4,4,3,3,6,6,6,4,3,6,6,6,4,6,6,4,6,6,6,6,4,6,6,4,4,0,6,4,6,4,6,6,6,3,3,4,6,6,6,4,4,4,6,4,4,4,3,3,3,0,4,4,4,4,0,6,6,6,4,4,3,4,0,3,4,4,0,0,4,4,0,0,0,0,0,0,0,0,0,0,0,0,0,0,0,0,0,0,0,0,0,0,0,0,0,0,0,0,0,0,0,0,0,0,0,0,0,0,0,0,0,0,0,0,0,0,0,0,0,0,0,0,0,0,0,0,0,0,0,0,0,0,0,0,0,0,0,0,0,0,0,0,0,0,0,0,0,0,0,0,0,0,0,0,0,0,0,0,0,0,0,0,0,0,0,0,0,0,0,0,0,0,0,0,0,0,0,0],"split_type":[0,0,0,0,0,0,0,0,0,0,0,0,0,0,0,0,0,0,0,0,0,0,0,0,0,0,0,0,0,0,0,0,0,0,0,0,0,0,0,0,0,0,0,0,0,0,0,0,0,0,0,0,0,0,0,0,0,0,0,0,0,0,0,0,0,0,0,0,0,0,0,0,0,0,0,0,0,0,0,0,0,0,0,0,0,0,0,0,0,0,0,0,0,0,0,0,0,0,0,0,0,0,0,0,0,0,0,0,0,0,0,0,0,0,0,0,0,0,0,0,0,0,0,0,0,0,0,0,0,0,0,0,0,0,0,0,0,0,0,0,0,0,0,0,0,0,0,0,0,0,0,0,0,0,0,0,0,0,0,0,0,0,0,0,0,0,0,0,0,0,0,0,0,0,0,0,0,0,0,0,0,0,0,0,0,0,0,0,0,0,0,0,0,0,0,0,0,0,0,0,0,0,0,0,0,0,0,0,0,0,0,0,0,0,0,0,0,0,0,0,0,0,0,0,0,0,0,0,0],"sum_hessian":[9.8385E4,9.1467E4,6.918E3,2.7897E4,6.357E4,3.847E3,3.071E3,1.6481E4,1.1416E4,5.6015E4,7.555E3,2.303E3,1.544E3,2.298E3,7.73E2,3.038E3,1.3443E4,8.813E3,2.603E3,2.4996E4,